-180530.599295369,-180530.599331123,-180530.599367002,-180530.599403006,-180530.599439136,-180530.59947539,-180530.59951177,-180530.599548275,-180530.599584905,-180530.59962166,-180530.599658541,-180530.599695547,-180530.599732678,-180530.599769934,-180530.599807315,-180530.599844822,-180530.599882454,-180530.599920211,-180530.599958094,-180530.599996102,-180530.600034235,-180530.600072493,-180530.600110877,-180530.600149385,-155613.745429676,-180530.600226779,-180530.600265664,-180530.600304674,-180530.600343809,-180530.60038307,-180530.600422456,-180530.600461967,-180530.600501604,-180530.600541366,-180530.600581253,-180530.600621266,-180530.600661404,-180530.600701667,-180530.600742055,-180530.60078257,-155613.705999242,-180530.600863974,-180530.600904864,-180530.600945879,-180530.60098702,-180530.601028286,-180530.601069678,-180530.601111195,-155613.686286906,-180530.601194605,-180530.601236499,-180530.601278517,-180530.601320661,-180530.601362931,-155613.67150391,-180530.601447846,-180530.601490492,-180530.601533263,-180530.60157616,-155613.659185568,-155613.656721988,-155613.654258439,-180530.601749001,-180530.601792525,-180530.601836175,-180530.601879949,-180530.60192385,-180530.601967876,-180530.602012027,-180530.602056304,-180530.602100706,-155613.629624578,-155613.627161356,-155613.624698162,-180530.602279571,-180530.602324601,-180530.602369756,-180530.602415037,-180530.602460444,-180530.602505976,-180530.602551634,-180530.602597417,-180530.602643326,-180530.60268936,-180530.60273552,-180530.602781805,-180530.602828216,-180530.602874753,-180530.602921415,-180530.602968203,-180530.603015116,-180530.603062155,-180530.60310932,-180530.60315661,-180530.603204025,-180530.603251567,-180530.603299234,-180530.603347026,-180530.603394945,-180530.603442989,-180530.603491158,-180530.603539453,-180530.603587874,-180530.60363642,-180530.603685093,-180530.60373389,-180530.603782814,-180530.603831863,-155613.538504967,-155613.536042832,-155613.533580727,-155613.53111865,-155613.528656603,-180530.604128797,-180530.604178725,-155613.521270636,-155613.518808706,-155613.516346804,-180530.604379698,-155613.511423088,-180530.604480939,-180530.604531748,-180530.604582682,-180530.604633743,-180530.604684929,-180530.604736241,-180530.604787678,-155613.491729387,12311.6695530292,34194.2428700925,-155613.484344728,-155613.481883232,-180530.605098945,-180530.605151263,-155613.47449892,-155613.472037541,-155613.46957619,-155613.467114868,-155613.464653575,-155613.462192311,-155613.459731076,-155613.457269869,-155613.454808692,-155613.452347543,-155613.449886423,-155613.447425331,-155613.444964269,-155613.442503235,-155613.44004223,-155613.437581254,-155613.435120306,-155613.432659388,-155613.430198498,-180530.606224045,-180530.606279005,-180530.606334092,-180530.606389304,-180530.606444642,-180530.606500106,-180530.606555696,-180530.606611412,-180530.606667254,-180530.606723221,-180530.606779315,-180530.606835534,-180530.60689188,-180530.606948351,-180530.607004948,-180530.607061672,-180530.607118521,-180530.607175496,-180530.607232597,-180530.607289824,-180530.607347177,-180530.607404656,-180530.607462261,-180530.607519992,-180530.607577848,-180530.607635831,-180530.60769394,-180530.607752175,-180530.607810536,-180530.607869022,-180530.607927635,-180530.607986374,-180530.608045239,-180530.60810423,-180530.608163346,-180530.608222589,-180530.608281958,-180530.608341453,-180530.608401074,-180530.608460821,-180530.608520694,-180530.608580693,-180530.608640818,-180530.608701069,-180530.608761447,-180530.60882195,-180530.608882579,-180530.608943335,-180530.609004216,-180530.609065224,-180530.609126358,-180530.609187617,-180530.609249003,-180530.609310515,-180530.609372153,-180530.609433917,-180530.609495808,-180530.609557824,-180530.609619967,-180530.609682235,-180530.60974463,-180530.609807151,-180530.609869798,-180530.609932571,-180530.609995471,-180530.610058496,-180530.610121648,-180530.610184926,-180530.61024833,-180530.61031186,-180530.610375516
-155613.804589826,-155613.802124471,-155613.799659146,-155613.797193852,-155613.794728587,-155613.792263354,-155613.789798151,-155613.787332978,-155613.784867835,-155613.782402723,-155613.779937641,-155613.77747259,-155613.775007569,-155613.772542578,-155613.770077618,-155613.767612687,-155613.765147787,-155613.762682918,-155613.760218078,-155613.757753269,-155613.75528849,-155613.752823741,-155613.750359023,-155613.747894335,168858.080324548,-155613.742965048,-155613.740500451,-155613.738035883,-155613.735571345,-155613.733106838,-155613.730642361,-155613.728177913,-155613.725713496,-155613.723249109,-155613.720784752,-155613.718320426,-155613.715856129,-155613.713391862,-155613.710927625,-155613.708463418,168858.104944867,-155613.703535095,-155613.701070978,-155613.698606891,-155613.696142834,-155613.693678807,-155613.69121481,-155613.688750843,168858.117246906,-155613.683822999,-155613.681359121,-155613.678895274,-155613.676431456,-155613.673967668,168858.126469883,-155613.669040182,-155613.666576484,-155613.664112815,-155613.661649177,168858.134153371,168858.135689815,168858.137226175,-155613.651794919,-155613.649331429,-155613.646867969,-155613.644404538,-155613.641941138,-155613.639477766,-155613.637014425,-155613.634551113,-155613.632087831,168858.15258512,168858.15412055,168858.155655895,-155613.622234999,-155613.619771865,-155613.61730876,-155613.614845685,-155613.61238264,-155613.609919624,-155613.607456638,-155613.604993681,-155613.602530754,-155613.600067856,-155613.597604988,-155613.595142149,-155613.59267934,-155613.59021656,-155613.587753809,-155613.585291088,-155613.582828397,-155613.580365735,-155613.577903102,-155613.575440499,-155613.572977925,-155613.57051538,-155613.568052865,-155613.565590379,-155613.563127922,-155613.560665495,-155613.558203097,-155613.555740728,-155613.553278389,-155613.550816079,-155613.548353798,-155613.545891546,-155613.543429324,-155613.540967131,168858.209339736,168858.21087204,168858.212404259,168858.213936393,168858.215468443,-155613.526194585,-155613.523732596,168858.220064087,168858.221595799,168858.223127427,-155613.513884932,168858.226190429,-155613.508961274,-155613.506499489,-155613.504037733,-155613.501576005,-155613.499114307,-155613.496652638,-155613.494190998,168858.238439062,-648.589692947859,27725.0111517919,168858.243030906,168858.244561352,-155613.479421766,-155613.476960329,168858.249152183,168858.250682291,168858.252212315,168858.253742255,168858.25527211,168858.256801881,168858.258331567,168858.259861169,168858.261390686,168858.26292012,168858.264449468,168858.265978733,168858.267507913,168858.269037008,168858.27056602,168858.272094947,168858.273623789,168858.275152547,168858.276681221,-155613.427737636,-155613.425276803,-155613.422815999,-155613.420355224,-155613.417894477,-155613.415433759,-155613.41297307,-155613.410512409,-155613.408051776,-155613.405591173,-155613.403130598,-155613.400670051,-155613.398209533,-155613.395749043,-155613.393288583,-155613.39082815,-155613.388367746,-155613.385907371,-155613.383447024,-155613.380986705,-155613.378526415,-155613.376066154,-155613.373605921,-155613.371145716,-155613.36868554,-155613.366225392,-155613.363765272,-155613.361305181,-155613.358845118,-155613.356385084,-155613.353925078,-155613.3514651,-155613.34900515,-155613.346545229,-155613.344085337,-155613.341625472,-155613.339165636,-155613.336705828,-155613.334246048,-155613.331786296,-155613.329326573,-155613.326866878,-155613.324407211,-155613.321947572,-155613.319487962,-155613.31702838,-155613.314568825,-155613.312109299,-155613.309649801,-155613.307190332,-155613.30473089,-155613.302271476,-155613.299812091,-155613.297352733,-155613.294893404,-155613.292434103,-155613.28997483,-155613.287515584,-155613.285056367,-155613.282597178,-155613.280138017,-155613.277678883,-155613.275219778,-155613.272760701,-155613.270301651,-155613.26784263,-155613.265383636,-155613.262924671,-155613.260465733,-155613.258006823,-155613.255547941
168858.043353452,168858.044894887,168858.046436238,168858.047977505,168858.049518687,168858.051059784,168858.052600796,168858.054141724,168858.055682568,168858.057223326,168858.058764,168858.060304589,168858.061845094,168858.063385514,168858.064925849,168858.0664661,168858.068006266,168858.069546348,168858.071086344,168858.072626257,168858.074166084,168858.075705827,168858.077245486,168858.078785059,-77368.2891276951,168858.081863953,168858.083403273,168858.084942508,168858.086481659,168858.088020725,168858.089559706,168858.091098603,168858.092637415,168858.094176143,168858.095714786,168858.097253344,168858.098791818,168858.100330207,168858.101868512,168858.103406732,-77368.2570021656,168858.106482918,168858.108020885,-77368.2509797964,168858.111096563,168858.112634276,168858.114171904,168858.115709447,-77368.2409433274,168858.11878428,168858.12032157,168858.121858775,168858.123395895,168858.124932931,-77368.2289009,168858.12800675,168858.129543532,168858.13108023,168858.132616843,-77368.2188666507,-77368.2168599211,-77368.2148532315,168858.13876245,168858.14029864,168858.141834746,168858.143370768,168858.144906704,168858.146442557,168858.147978324,168858.149514007,168858.151049606,34194.2270558256,34194.2273284853,-77368.1907760621,168858.157191155,168858.158726331,168858.160261423,168858.16179643,168858.163331352,168858.16486619,168858.166400944,168858.167935613,168858.169470197,168858.171004697,168858.172539113,168858.174073443,168858.17560769,168858.177141852,168858.178675929,168858.180209922,168858.181743831,168858.183277654,168858.184811394,168858.186345049,168858.187878619,168858.189412105,168858.190945507,168858.192478824,168858.194012056,168858.195545204,168858.197078268,168858.198611247,168858.200144142,168858.201676952,168858.203209678,168858.204742319,168858.206274876,168858.207807348,-77368.1205832072,-77368.1185783908,-77368.1165736124,-77368.114568872,-77368.1125641697,168858.217000409,168858.21853229,-77368.1065502899,-77368.104545739,-77368.1025412258,-77368.1005367504,-77368.0985323127,168858.227721804,168858.229253094,168858.2307843,168858.232315421,168858.233846458,168858.23537741,168858.236908278,34194.2423247729,-74710.0359386272,-209280.172057643,34194.2431427523,34194.243415412,168858.246091713,168858.24762199,34194.2442333914,34194.2445060512,34194.2447787109,-71535.9509778804,-71535.9515231996,-71535.9520685188,-71535.9526138379,-71535.9531591571,-71535.9537044763,-77368.0504370105,-77368.0484335021,-77368.0464300303,-77368.0444265951,-77368.0424231965,-77368.0404198344,-77368.0384165088,-77368.0364132197,-77368.034409967,-77368.0324067507,168858.27820981,168858.279738315,168858.281266736,168858.282795072,168858.284323324,168858.285851492,168858.287379575,168858.288907574,168858.290435489,168858.291963319,168858.293491065,168858.295018726,168858.296546303,168858.298073796,168858.299601205,168858.301128529,168858.302655769,168858.304182924,168858.305709996,168858.307236982,168858.308763885,168858.310290703,168858.311817437,168858.313344087,168858.314870652,168858.316397133,168858.317923529,168858.319449842,168858.32097607,168858.322502213,168858.324028273,168858.325554248,168858.327080139,168858.328605945,168858.330131667,168858.331657305,168858.333182859,168858.334708328,168858.336233713,168858.337759014,168858.339284231,168858.340809363,168858.342334411,168858.343859375,168858.345384254,168858.346909049,168858.34843376,168858.349958386,168858.351482929,168858.353007387,168858.354531761,168858.35605605,168858.357580255,168858.359104377,168858.360628413,168858.362152366,168858.363676234,168858.365200018,168858.366723718,168858.368247334,168858.369770865,168858.371294312,168858.372817675,168858.374340953,168858.375864148,168858.377387258,168858.378910284,168858.380433226,168858.381956083,168858.383478856,168858.385001545
-77368.3373359277,-77368.3353267677,-77368.3333176501,-77368.3313085748,-77368.3292995417,-77368.3272905509,-77368.3252816022,-77368.3232726957,-77368.3212638313,-77368.319255009,-77368.3172462287,-77368.3152374904,-77368.313228794,-77368.3112201395,-77368.309211527,-77368.3072029562,-77368.3051944272,-77368.30318594,-77368.3011774945,-77368.2991690907,-77368.2971607285,-77368.2951524079,-77368.2931441288,-77368.2911358912,-71535.8893568112,-77368.2871195405,-77368.2851114272,-77368.2831033553,-77368.2810953247,-77368.2790873354,-77368.2770793873,-77368.2750714804,-77368.2730636147,-77368.2710557901,-77368.2690480065,-77368.267040264,-77368.2650325625,-77368.2630249019,-77368.2610172823,-77368.2590097035,-71535.8980819184,-77368.2549946685,-77368.2529872121,-71535.8997178759,-77368.2489724214,-77368.2469650871,-77368.2449577933,-77368.2429505401,-71535.9024444719,-77368.2389361552,-77368.2369290235,-77368.2349219321,-77368.2329148811,-77368.2309078704,-71535.9057163871,-77368.2268939698,-77368.2248870798,-77368.22288023,-77368.2208734203,85923.4370849511,34194.2240565681,-71535.9095336214,-77368.2128465819,-77368.2108399722,-71535.911169579,-77368.2068268724,34194.2256925267,34194.2259651865,-77368.2008075211,-77368.1988011501,34194.2267831658,85923.4469007164,85923.4477186968,34194.2276011451,-77368.1887698888,-77368.1867637551,-77368.1847576607,-77368.1827516057,-77368.18074559,-77368.1787396136,-77368.1767336765,-77368.1747277785,-77368.1727219198,-77368.1707161001,-77368.1687103195,-77368.166704578,-77368.1646988754,-77368.1626932119,-77368.1606875872,-77368.1586820015,-77368.1566764545,-77368.1546709464,-77368.1526654771,-77368.1506600465,-77368.1486546545,-77368.1466493012,-77368.1446439866,-77368.1426387105,-77368.1406334729,-77368.1386282738,-77368.1366231131,-77368.1346179909,-77368.132612907,-77368.1306078614,-77368.1286028542,-77368.1265978852,-77368.1245929544,-77368.1225880617,34194.2371442372,34194.237416897,34194.2376895568,34194.2379622165,85923.480437914,-77368.1105595052,-77368.1085548786,34194.2390528556,34194.2393255154,34194.2395981752,34194.239870835,34194.2401434948,-77368.0965279126,34194.2406888143,34194.2409614741,34194.2412341338,34194.2415067936,34194.2417794534,34194.2420521132,85923.4927076204,715159.842152783,34762.246249085,85923.4951615616,85923.495979542,34194.2436880718,34194.2439607316,85923.4984334833,85923.4992514637,85923.5000694441,34194.2450513707,34194.2453240305,34194.2455966902,34194.24586935,34194.2461420098,34194.2464146696,-71535.9542497955,-71535.9547951147,-71535.9553404339,-71535.9558857531,-71535.9564310723,-71535.9569763915,-71535.9575217107,-71535.9580670299,-71535.9586123491,-71535.9591576683,-77368.0304035707,-77368.0284004269,-77368.0263973195,-77368.0243942482,-77368.0223912132,-77368.0203882142,-77368.0183852514,-77368.0163823246,-77368.0143794339,-77368.0123765791,-77368.0103737602,-77368.0083709773,-77368.0063682302,-77368.0043655189,-77368.0023628434,-77368.0003602036,-77367.9983575995,-77367.9963550311,-77367.9943524983,-77367.9923500011,-77367.9903475394,-77367.9883451132,-77367.9863427224,-77367.9843403671,-77367.9823380471,-77367.9803357625,-77367.9783335132,-77367.9763312992,-77367.9743291203,-77367.9723269767,-77367.9703248681,-77367.9683227947,-77367.9663207564,-77367.964318753,-77367.9623167846,-77367.9603148512,-77367.9583129526,-77367.956311089,-77367.9543092601,-77367.952307466,-77367.9503057067,-77367.948303982,-77367.9463022921,-77367.9443006367,-77367.9422990159,-77367.9402974296,-77367.9382958779,-77367.9362943606,-77367.9342928777,-77367.9322914292,-77367.9302900151,-77367.9282886352,-77367.9262872896,-77367.9242859782,-77367.922284701,-77367.920283458,-77367.918282249,-77367.9162810741,-77367.9142799332,-77367.9122788263,-77367.9102777534,-77367.9082767143,-77367.9062757091,-77367.9042747377,-77367.9022738001,-77367.9002728963,-77367.8982720261,-77367.8962711896,-77367.8942703867,-77367.8922696174,-77367.8902688817
-71535.8762691505,-71535.8768144697,-71535.8773597889,-71535.877905108,-71535.8784504272,-71535.8789957464,-71535.8795410656,-71535.8800863848,-71535.880631704,-71535.8811770232,-71535.8817223424,-71535.8822676616,-71535.8828129808,-71535.8833583,-71535.8839036192,-71535.8844489384,-71535.8849942576,-71535.8855395768,-71535.886084896,-71535.8866302152,-71535.8871755344,-71535.8877208536,-71535.8882661728,-71535.888811492,34194.2142408163,-71535.8899021304,-71535.8904474496,-71535.8909927688,-71535.891538088,-71535.8920834072,-71535.8926287264,-71535.8931740456,-71535.8937193648,-71535.894264684,-71535.8948100032,-71535.8953553224,-71535.8959006416,-71535.8964459608,-71535.89699128,-71535.8975365992,34194.2186033727,-71535.8986272376,-71535.8991725567,34194.219421352,-71535.9002631951,-71535.9008085143,-71535.9013538335,-71535.9018991527,34194.2207846508,-71535.9029897911,-71535.9035351103,-71535.9040804295,-71535.9046257487,-71535.9051710679,85923.4329950489,-71535.9062617063,-71535.9068070255,-71535.9073523447,-71535.9078976639,-74709.9606847024,85923.4379029316,34194.2243292279,-71535.9100789406,-71535.9106242598,85923.4411748533,34194.225419867,85923.4428108142,85923.4436287947,34194.2262378463,34194.226510506,85923.446082736,12311.6540114335,12311.6542840931,85923.4485366773,34194.2278738049,34194.2281464647,-71535.9177134093,-71535.9182587285,-71535.9188040477,-71535.9193493669,-71535.9198946861,-71535.9204400053,-71535.9209853245,-71535.9215306437,-71535.9220759629,-71535.9226212821,-71535.9231666013,-71535.9237119205,34194.2316910418,34194.2319637015,34194.2322363613,34194.2325090211,34194.2327816808,34194.2330543406,85923.4657142663,85923.4665322468,34194.2338723199,34194.2341449797,34194.2344176395,85923.4698041685,85923.4706221489,85923.4714401293,34194.2355082786,34194.2357809383,85923.4738940706,34194.2363262579,34194.2365989177,34194.2368715774,85923.4771659923,85923.4779839728,85923.4788019532,85923.4796199336,12311.6651904761,34194.2385075361,34194.2387801959,85923.4828918553,85923.4837098358,85923.4845278162,85923.4853457966,85923.486163777,34194.2404161545,85923.4877997378,85923.4886177182,85923.4894356987,85923.4902536791,85923.4910716595,85923.4918896399,12311.6692803696,-209280.171346137,238186.711164697,12311.6700983483,12311.6703710079,85923.4967975225,85923.4976155029,12311.6711889866,12311.6714616462,12311.6717343058,85923.5008874246,85923.501705405,85923.5025233854,85923.5033413658,85923.5041593463,85923.5049773267,34194.2466873293,34194.2469599891,34194.2472326489,34194.2475053087,34194.2477779685,34194.2480506282,34194.248323288,34194.2485959478,34194.2488686076,34194.2491412674,-71535.9597029875,-71535.9602483067,-71535.9607936259,-71535.9613389451,-71535.9618842643,-71535.9624295835,-71535.9629749027,-71535.963520222,34194.2515952054,34194.2518678651,34194.2521405249,-71535.9657014987,34194.2526858444,34194.2529585042,34194.253231164,34194.2535038238,34194.2537764836,-71535.9689734139,-71535.9695187331,-71535.9700640523,-71535.9706093715,-71535.9711546907,-71535.9717000099,-71535.9722453291,-71535.9727906483,-71535.9733359675,34194.2565030813,34194.2567757411,-71535.9749719251,-71535.9755172443,-71535.9760625635,-71535.9766078827,34194.2581390399,-71535.9776985211,-71535.9782438403,-71535.9787891595,-71535.9793344787,34194.2595023388,-71535.9804251171,-71535.9809704363,-71535.9815157555,-71535.9820610747,-71535.9826063939,-71535.9831517131,-71535.9836970323,-71535.9842423515,-71535.9847876707,-71535.9853329899,-71535.9858783091,-71535.9864236283,-71535.9869689475,-71535.9875142667,-71535.9880595859,-71535.9886049051,-71535.9891502243,-71535.9896955435,-71535.9902408627,-71535.9907861819,-71535.9913315011,-71535.9918768203,-71535.9924221395,-71535.9929674587,-71535.9935127779,-71535.9940580971,-71535.9946034163,-71535.9951487355,-71535.9956940547,-71535.9962393739,-71535.9967846931,-71535.9973300123,-71535.9978753315
34194.2076969817,34194.2079696415,34194.2082423012,34194.208514961,34194.2087876208,34194.2090602806,34194.2093329403,34194.2096056001,34194.2098782599,34194.2101509197,34194.2104235794,34194.2106962392,34194.210968899,34194.2112415588,34194.2115142185,34194.2117868783,34194.2120595381,34194.2123321979,34194.2126048576,34194.2128775174,34194.2131501772,34194.213422837,34194.2136954967,34194.2139681565,85923.4084556357,34194.2145134761,34194.2147861358,34194.2150587956,34194.2153314554,34194.2156041151,34194.2158767749,34194.2161494347,34194.2164220945,34194.2166947542,34194.216967414,85923.4174534206,34194.2175127336,34194.2177853933,34194.2180580531,34194.2183307129,85923.4215433228,34194.2188760324,34194.2191486922,85923.4239972642,34194.2196940117,34194.2199666715,34194.2202393313,34194.2205119911,85923.4280871663,34194.2210573106,34194.2213299704,34194.2216026301,34194.2218752899,12311.6491035611,12311.6493762207,34194.2226932692,34194.222965929,34194.2232385888,34194.2235112486,27724.9729794134,-648.589692947859,85923.438720912,34194.2246018876,85923.4403568729,-648.589692947859,85923.4419928338,12311.6526481356,12311.6529207952,85923.4444467751,85923.4452647555,12311.6537387739,-74709.9737723417,-74709.9748629783,12311.6545567527,12311.6548294122,85923.4501726381,34194.2284191244,34194.2286917842,34194.228964444,34194.2292371038,34194.2295097635,34194.2297824233,34194.2300550831,34194.2303277429,34194.2306004026,34194.2308730624,34194.2311457222,34194.231418382,85923.4608063837,85923.4616243642,85923.4624423446,85923.463260325,85923.4640783055,85923.4648962859,12311.6602826038,12311.6605552634,85923.4673502272,85923.4681682076,85923.4689861881,12311.6616459016,12311.6619185612,12311.6621912208,85923.4722581098,85923.4730760902,12311.6630091995,85923.4747120511,85923.4755300315,85923.4763480119,12311.6640998378,12311.6643724974,12311.664645157,12311.6649178165,-648.589692947859,85923.4812558945,85923.4820738749,12311.6660084548,12311.6662811144,12311.666553774,12311.6668264335,12311.6670990931,85923.4869817574,12311.6676444122,12311.6679170718,12311.6681897314,12311.6684623909,12311.6687350505,12311.6690077101,-648.589692947859,-43464.866996741,-3646.54424050914,-648.589692947859,-648.589692947859,12311.6706436675,12311.6709163271,-648.589692947859,-648.589692947859,-648.589692947859,12311.6720069653,12311.6722796249,12311.6725522845,12311.672824944,12311.6730976036,12311.6733702632,85923.5057953071,85923.5066132875,85923.507431268,85923.5082492484,85923.5090672288,85923.5098852092,85923.5107031897,85923.5115211701,85923.5123391505,85923.5131571309,34194.2494139271,34194.2496865869,34194.2499592467,34194.2502319065,34194.2505045662,34194.250777226,34194.2510498858,34194.2513225456,85923.5205189548,85923.5213369352,85923.5221549156,34194.2524131847,85923.5237908765,85923.5246088569,85923.5254268373,85923.5262448177,85923.5270627982,34194.2540491433,34194.2543218031,34194.2545944629,34194.2548671227,34194.2551397824,34194.2554124422,34194.255685102,34194.2559577618,34194.2562304215,85923.5352426023,85923.5360605827,34194.2570484008,34194.2573210606,34194.2575937204,34194.2578663802,85923.5401504848,34194.2584116997,34194.2586843595,34194.2589570193,34194.259229679,85923.5442403869,34194.2597749986,34194.2600476584,34194.2603203181,34194.2605929779,34194.2608656377,34194.2611382975,34194.2614109573,34194.261683617,34194.2619562768,34194.2622289366,34194.2625015964,85923.5540561518,85923.5548741323,85923.5556921127,85923.5565100931,85923.5573280735,85923.5581460539,85923.5589640343,85923.5597820147,85923.5605999951,85923.5614179755,34194.265500854,34194.2657735137,34194.2660461735,34194.2663188333,34194.266591493,34194.2668641528,34194.2671368126,34194.2674094724,34194.2676821322,34194.2679547919,34194.2682274517,34194.2685001115
85923.3888241048,85923.3896420853,85923.3904600658,85923.3912780462,85923.3920960267,85923.3929140071,85923.3937319876,85923.394549968,85923.3953679485,85923.3961859289,85923.3970039094,85923.3978218898,85923.3986398703,85923.3994578507,85923.4002758312,85923.4010938116,85923.4019117921,85923.4027297725,85923.403547753,85923.4043657334,85923.4051837139,85923.4060016943,85923.4068196748,85923.4076376553,12311.6411964332,85923.4092736162,85923.4100915966,85923.4109095771,85923.4117275575,85923.412545538,85923.4133635184,85923.4141814989,85923.4149994793,85923.4158174597,85923.4166354402,12311.6441956886,85923.4182714011,85923.4190893815,85923.419907362,85923.4207253424,12311.6455589865,85923.4223613033,85923.4231792837,12311.6463769653,85923.4248152446,85923.425633225,85923.4264512055,85923.4272691859,12311.6477402632,85923.4289051467,12311.6482855823,12311.6485582419,85923.4313590881,-74709.9541408827,-74709.9552315194,85923.4338130294,85923.4346310098,85923.4354489902,85923.4362669707,-209280.122254246,-74709.961775339,-74709.9628659756,85923.4395388925,-648.589692947859,-74709.9661378855,-74709.967228522,-74709.9683191587,-648.589692947859,12311.6531934548,12311.6534661143,-74709.9726817051,27724.9795232498,27724.9800685694,-74709.9759536149,-74709.9770442515,12311.6551020718,85923.4509906185,85923.4518085989,85923.4526265793,85923.4534445598,85923.4542625402,85923.4550805206,85923.455898501,85923.4567164814,85923.4575344619,85923.4583524423,85923.4591704228,85923.4599884032,12311.6586466463,12311.6589193059,12311.6591919655,12311.659464625,12311.6597372846,12311.6600099442,-648.589692947859,-648.589692947859,12311.6608279229,12311.6611005825,12311.6613732421,-648.589692947859,-648.589692947859,-648.589692947859,12311.6624638804,12311.6627365399,-648.589692947859,12311.6632818591,12311.6635545187,12311.6638271782,-648.589692947859,-648.589692947859,-648.589692947859,-648.589692947859,-74710.018488442,12311.6654631357,12311.6657357952,-648.589692947859,-648.589692947859,-648.589692947859,-648.589692947859,-648.589692947859,12311.6673717527,-648.589692947859,-648.589692947859,-648.589692947859,-648.589692947859,-648.589692947859,-648.589692947859,-74710.0348479907,1611.29925925589,-277876.319731025,-74710.0381199004,-74710.0392105369,-648.589692947859,-648.589692947859,-74710.0424824467,-74710.0435730833,-74710.0446637199,-74710.0457543565,-648.589692947859,-648.589692947859,-648.589692947859,-648.589692947859,-648.589692947859,12311.6736429227,12311.6739155823,12311.6741882419,12311.6744609014,12311.674733561,12311.6750062206,12311.6752788801,12311.6755515397,12311.6758241993,12311.6760968588,85923.5139751114,85923.5147930918,85923.5156110722,85923.5164290526,85923.5172470331,85923.5180650135,85923.5188829939,85923.5197009743,12311.678550795,12311.6788234546,12311.6790961141,85923.522972896,12311.6796414333,12311.6799140928,12311.6801867524,12311.680459412,12311.6807320715,85923.5278807786,85923.528698759,85923.5295167394,85923.5303347198,85923.5311527003,85923.5319706807,85923.5327886611,85923.5336066415,85923.5344246219,12311.6834586672,12311.6837313267,85923.5368785632,85923.5376965436,85923.538514524,85923.5393325044,12311.6850946246,85923.5409684652,85923.5417864457,85923.5426044261,85923.5434224065,12311.6864579224,85923.5450583673,85923.5458763477,85923.5466943281,85923.5475123086,85923.548330289,85923.5491482694,85923.5499662498,85923.5507842302,85923.5516022106,85923.552420191,85923.5532381714,12311.6897298371,12311.6900024967,12311.6902751562,12311.6905478158,12311.6908204754,12311.6910931349,12311.6913657945,12311.691638454,12311.6919111136,12311.6921837732,85923.5622359559,85923.5630539363,85923.5638719167,85923.5646898971,85923.5655078775,85923.5663258579,85923.5671438383,85923.5679618187,85923.5687797992,85923.5695977796,85923.57041576,85923.5712337404
12311.6346526031,12311.6349252627,12311.6351979223,12311.6354705819,12311.6357432414,12311.636015901,12311.6362885606,12311.6365612202,12311.6368338798,12311.6371065394,12311.637379199,12311.6376518586,12311.6379245181,12311.6381971777,12311.6384698373,12311.6387424969,12311.6390151565,12311.6392878161,12311.6395604757,12311.6398331353,12311.6401057948,12311.6403784544,12311.640651114,12311.6409237736,-648.589692947859,12311.6414690928,12311.6417417524,12311.6420144119,-648.589692947859,-648.589692947859,12311.6428323907,12311.6431050503,12311.6433777099,12311.6436503695,12311.643923029,-648.589692947859,12311.6444683482,12311.6447410078,12311.6450136674,12311.645286327,-648.589692947859,12311.6458316461,12311.6461043057,-648.589692947859,12311.6466496249,12311.6469222844,12311.647194944,12311.6474676036,-648.589692947859,12311.6480129228,-648.589692947859,-648.589692947859,12311.6488309015,27724.9697074952,27724.9702528149,12311.6496488802,-648.589692947859,-648.589692947859,12311.650466859,34762.0183299659,27724.9735247331,27724.9740700528,-648.589692947859,-74709.9650472488,27724.9757060119,27724.9762513316,27724.9767966513,-74709.9694097952,-74709.9705004319,-648.589692947859,27724.9789779301,-209280.130791687,-209280.131503146,27724.9806138891,27724.9811592088,-648.589692947859,12311.6553747314,-648.589692947859,12311.6559200506,12311.6561927101,12311.6564653697,12311.6567380293,12311.6570106889,12311.6572833484,12311.657556008,12311.6578286676,12311.6581013272,12311.6583739867,-648.589692947859,-648.589692947859,-648.589692947859,-648.589692947859,-648.589692947859,-648.589692947859,-74709.9988569834,-74709.9999476199,-648.589692947859,-648.589692947859,-648.589692947859,-74710.0043101663,-74710.0054008029,-74710.0064914395,-648.589692947859,-648.589692947859,-74710.0097633493,-648.589692947859,-648.589692947859,-648.589692947859,-74710.0141258956,-74710.0152165322,-74710.0163071688,-74710.0173978054,27725.0018813572,-648.589692947859,-648.589692947859,-74710.0217603517,-74710.0228509883,-74710.0239416249,-74710.0250322614,-74710.026122898,-648.589692947859,-74710.0283041712,-74710.0293948077,-74710.0304854443,-74710.0315760809,-74710.0326667175,-74710.033757354,27725.0100611526,-730.777806392256,-170534.032559336,27725.0116971116,27725.0122424313,-74710.0403011735,-74710.0413918101,27725.0138783904,27725.01442371,27725.0149690297,27725.0155143494,-74710.0468449931,-74710.0479356296,-74710.0490262662,-74710.0501169028,-74710.0512075394,-648.589692947859,-648.589692947859,-648.589692947859,-648.589692947859,-648.589692947859,-648.589692947859,-648.589692947859,-648.589692947859,-648.589692947859,-648.589692947859,12311.6763695184,12311.676642178,12311.6769148376,12311.6771874971,12311.6774601567,12311.6777328163,12311.6780054758,12311.6782781354,-648.589692947859,-648.589692947859,-648.589692947859,12311.6793687737,-648.589692947859,-648.589692947859,-648.589692947859,-648.589692947859,-648.589692947859,12311.6810047311,12311.6812773907,12311.6815500502,12311.6818227098,12311.6820953694,12311.6823680289,12311.6826406885,12311.6829133481,12311.6831860076,-648.589692947859,-648.589692947859,12311.6840039863,12311.6842766459,12311.6845493054,12311.684821965,-648.589692947859,12311.6853672841,12311.6856399437,12311.6859126033,12311.6861852628,-648.589692947859,12311.6867305819,12311.6870032415,12311.6872759011,12311.6875485606,12311.6878212202,12311.6880938798,12311.6883665393,12311.6886391989,12311.6889118584,12311.689184518,12311.6894571776,-648.589692947859,-648.589692947859,-648.589692947859,-648.589692947859,-648.589692947859,-648.589692947859,-648.589692947859,-648.589692947859,-648.589692947859,-648.589692947859,12311.6924564327,12311.6927290923,12311.6930017518,12311.6932744114,12311.693547071,12311.6938197305,12311.6940923901,12311.6943650496,12311.6946377092,12311.6949103687,12311.6951830283,12311.6954556878
-648.589692947859,-648.589692947859,-648.589692947859,-648.589692947859,-648.589692947859,-648.589692947859,-648.589692947859,-648.589692947859,-648.589692947859,-648.589692947859,-648.589692947859,-648.589692947859,-648.589692947859,-648.589692947859,-648.589692947859,-648.589692947859,-648.589692947859,-648.589692947859,-648.589692947859,-648.589692947859,-648.589692947859,-648.589692947859,-648.589692947859,-648.589692947859,-74709.9225124208,-648.589692947859,-648.589692947859,-648.589692947859,-74709.9268749673,-74709.9279656039,-648.589692947859,-648.589692947859,-648.589692947859,-74709.9323281504,-648.589692947859,-74709.9345094237,-648.589692947859,-648.589692947859,-648.589692947859,-648.589692947859,-74709.9399626068,-648.589692947859,-648.589692947859,-74709.9432345166,-648.589692947859,-648.589692947859,-648.589692947859,-648.589692947859,-74709.9486876997,-648.589692947859,-74709.9508689729,-74709.9519596095,-648.589692947859,-209280.11798557,-209280.118697014,-74709.956322156,-74709.9574127926,-74709.9585034292,-74709.9595940658,-43464.7934098121,-209280.122965695,-209280.123677144,-74709.9639566122,27724.9751606922,-209280.125811499,-209280.126522952,-209280.127234405,27724.977341971,27724.9778872907,-74709.9715910685,-209280.130080229,34762.0574031401,34762.0606592132,-209280.132214605,-209280.132926065,-74709.9781348881,-648.589692947859,-74709.9803161613,-648.589692947859,-648.589692947859,-648.589692947859,-648.589692947859,-648.589692947859,-648.589692947859,-648.589692947859,-648.589692947859,-648.589692947859,-648.589692947859,-74709.9923131638,-74709.9934038004,-74709.994494437,-74709.9955850736,-74709.9966757102,-74709.9977663468,27724.9920656028,27724.9926109224,-74710.0010382565,-74710.0021288931,-74710.0032195297,27724.9947922012,-209280.151424322,27724.9958828406,-74710.0075820761,-74710.0086727127,27724.9975187997,-74710.0108539858,-74710.0119446224,-74710.013035259,27724.9997000784,27725.0002453981,27725.0007907178,27725.0013360375,715159.659836009,-74710.0195790785,-74710.0206697151,27725.0035173163,27725.004062636,27725.0046079557,27725.0051532754,27725.0056985951,-74710.0272135346,27725.0067892344,27725.0073345541,27725.0078798738,27725.0084251935,27725.0089705132,27725.0095158329,715159.830757987,-52497.608283609,267695.666266105,715159.864942373,715159.876337168,27725.012787751,27725.0133330707,715159.910521551,715159.921916344,715159.933311137,715159.94470593,27725.0160596691,27725.0166049888,27725.0171503085,27725.0176956282,27725.0182409478,-74710.052298176,-74710.0533888126,-74710.0544794492,-74710.0555700858,-74710.0566607223,-74710.0577513589,-74710.0588419955,-74710.0599326321,-74710.0610232687,-74710.0621139053,-74710.0632045418,-648.589692947859,-648.589692947859,-648.589692947859,-648.589692947859,-648.589692947859,-648.589692947859,-648.589692947859,-74710.0719296345,-74710.0730202711,-74710.0741109077,-648.589692947859,-74710.0762921808,-74710.0773828174,-74710.078473454,-74710.0795640906,-74710.0806547271,-648.589692947859,-648.589692947859,-648.589692947859,-648.589692947859,-648.589692947859,-648.589692947859,-648.589692947859,-648.589692947859,-648.589692947859,-74710.0915610929,-74710.0926517294,-648.589692947859,-648.589692947859,-648.589692947859,-648.589692947859,-74710.0981049123,-648.589692947859,-648.589692947859,-648.589692947859,-648.589692947859,-74710.1035580951,-648.589692947859,-648.589692947859,-648.589692947859,-648.589692947859,-648.589692947859,-648.589692947859,-648.589692947859,-648.589692947859,-648.589692947859,-648.589692947859,-648.589692947859,-74710.1166457338,-74710.1177363704,-74710.118827007,-74710.1199176435,-74710.1210082801,-74710.1220989166,-74710.1231895532,-74710.1242801897,-74710.1253708263,-74710.1264614628,-648.589692947859,-648.589692947859,-648.589692947859,-648.589692947859,-648.589692947859,-648.589692947859,-648.589692947859,-648.589692947859,-648.589692947859,-648.589692947859,-648.589692947859,-648.589692947859
-74709.8963371415,-74709.8974277782,-74709.8985184148,-74709.8996090514,-74709.9006996881,-74709.9017903247,-74709.9028809614,-74709.903971598,-74709.9050622346,-74709.9061528713,-74709.9072435079,-74709.9083341445,-74709.9094247812,-74709.9105154178,-74709.9116060544,-74709.9126966911,-74709.9137873277,-74709.9148779643,-74709.915968601,-74709.9170592376,-74709.9181498742,-74709.9192405109,-74709.9203311475,-74709.9214217841,27724.9538932236,-74709.9236030574,-74709.924693694,-74709.9257843307,27724.9560745025,27724.9566198222,-74709.9290562406,-74709.9301468772,-74709.9312375138,-209280.103756862,-74709.9334187871,-209280.105179718,-74709.9356000603,-74709.9366906969,-74709.9377813335,-74709.9388719701,27724.962618339,-74709.9410532434,-74709.94214388,27724.9642542981,-74709.9443251532,-74709.9454157898,-74709.9465064264,-74709.9475970631,27724.9669808966,-74709.9497783363,27724.9680715361,27724.9686168558,-74709.9530502461,34761.9987931729,34762.0020493146,27724.9707981346,27724.9713434543,27724.971888774,27724.9724340937,1611.3179733308,34762.0215860848,34762.0248421998,27724.9746153725,-209280.125100046,34762.0346105219,34762.0378666217,34762.0411227176,-209280.12794586,-209280.128657316,27724.9784326104,34762.0541470633,-43464.8062064213,-43464.8072728267,34762.0639152824,34762.0671713479,27724.9817045285,-74709.9792255247,27724.9827951679,-74709.9814067978,-74709.9824974344,-74709.983588071,-74709.9846787076,-74709.9857693442,-74709.9868599808,-74709.9879506174,-74709.989041254,-74709.9901318906,-74709.9912225272,27724.9887936846,27724.9893390043,27724.989884324,27724.9904296437,27724.9909749634,27724.9915202831,-209280.147155444,-209280.147866922,27724.9931562421,27724.9937015618,27724.9942468815,-209280.15071284,34762.1518277124,-209280.152135804,27724.9964281603,27724.99697348,-209280.154270256,27724.9980641194,27724.998609439,27724.9991547587,-209280.157116204,-209280.157827693,-209280.158539183,-209280.159250673,-209280.159962164,27725.0024266769,27725.0029719966,715159.694020411,715159.705415211,715159.71681001,715159.728204809,-209280.164942627,27725.0062439148,715159.762389205,715159.773784003,715159.7851788,715159.796573598,715159.807968394,715159.819363191,-209280.170634633,-277876.323167763,NaN,34762.2495049375,34762.252760786,715159.887731963,715159.899126757,34762.2625283092,34762.2657841426,34762.2690399723,34762.272295798,715159.956100722,715159.967495514,715159.978890306,715159.990285098,715160.001679889,27725.0187862675,27725.0193315872,27725.0198769069,27725.0204222266,27725.0209675463,27725.021512866,27725.0220581856,27725.0226035053,27725.023148825,27725.0236941447,715160.127022568,-74710.0642951784,-74710.065385815,-74710.0664764516,-74710.0675670882,-74710.0686577248,-74710.0697483614,-74710.0708389979,27725.0286020218,27725.0291473415,27725.0296926612,-74710.0752015443,27725.0307833005,27725.0313286202,27725.0318739399,27725.0324192596,27725.0329645793,-74710.0817453637,-74710.0828360003,-74710.0839266369,-74710.0850172734,-74710.08610791,-74710.0871985466,-74710.0882891832,-74710.0893798197,-74710.0904704563,27725.038417776,27725.0389630957,-74710.093742366,-74710.0948330026,-74710.0959236391,-74710.0970142757,27725.0416896941,-74710.0991955489,-74710.1002861854,-74710.101376822,-74710.1024674585,27725.0444162924,-74710.1046487317,-74710.1057393682,-74710.1068300048,-74710.1079206414,-74710.1090112779,-74710.1101019145,-74710.111192551,-74710.1122831876,-74710.1133738242,-74710.1144644607,-74710.1155550973,27725.0509601285,27725.0515054481,27725.0520507678,27725.0525960875,27725.0531414071,27725.0536867268,27725.0542320465,27725.0547773661,27725.0553226858,27725.0558680054,-74710.1275520994,-74710.1286427359,-74710.1297333725,-74710.130824009,-74710.1319146456,-74710.1330052821,-74710.1340959187,-74710.1351865553,-74710.1362771918,-74710.1373678283,-74710.1384584649,-74710.1395491014
27724.9408055504,27724.9413508701,27724.9418961898,27724.9424415095,27724.9429868293,27724.943532149,27724.9440774687,27724.9446227884,27724.9451681081,27724.9457134279,27724.9462587476,27724.9468040673,27724.947349387,27724.9478947067,27724.9484400265,27724.9489853462,27724.9495306659,27724.9500759856,27724.9506213053,27724.9511666251,27724.9517119448,27724.9522572645,27724.9528025842,27724.9533479039,715158.657092184,27724.9544385434,27724.9549838631,27724.9555291828,715158.702671507,715158.714066336,27724.9571651419,27724.9577104616,27724.9582557814,34761.933669537,27724.9593464208,34761.9401819694,-209280.105891147,27724.9609823799,27724.9615276996,27724.9620730193,715158.839409441,27724.9631636587,27724.9637089784,-209280.110871175,27724.9647996178,27724.9653449375,27724.9658902572,27724.9664355769,-209280.114428362,27724.9675262164,-209280.115851242,-209280.116562684,27724.9691621755,-43464.7870116844,-43464.7880780308,-209280.119408458,715159.021726609,715159.033121429,715159.044516249,-730.62184456312,-43464.7944761782,-43464.7955425476,-209280.124388595,34762.0313544184,-43464.7987416753,-43464.7998080578,-43464.8008744435,34762.0443788097,34762.0476348981,-209280.129368772,-43464.8051400192,1611.31472016547,1611.31444904069,-43464.8083392353,-43464.8094056472,-209280.133637527,-209280.134348989,-209280.135060451,27724.9833404876,27724.9838858073,27724.984431127,27724.9849764467,27724.9855217664,27724.9860670861,27724.9866124058,27724.9871577255,27724.9877030452,27724.9882483649,-209280.142886596,34762.1160118722,-209280.144309542,-209280.145021017,34762.1257798743,-209280.146443968,34762.1322918567,34762.1355478422,-209280.1485784,34762.1420598017,-209280.150001359,34762.148571746,-43464.8371335045,34762.155083675,-209280.152847287,-209280.153558771,34762.1648515401,-209280.154981742,-209280.155693228,-209280.156404716,34762.177875307,34762.1811312392,34762.1843871676,34762.1876430922,34762.190899013,-209280.160673657,715159.682625611,-209280.162096644,-209280.162808138,-209280.163519634,-209280.16423113,34762.2136903521,-209280.165654125,-209280.166365624,-209280.167077123,-209280.167788624,-209280.168500125,-209280.169211627,-209280.169923129,34762.2397373688,-170534.035626166,NaN,-43464.8691299271,-43464.870196525,34762.2560166308,34762.259272472,-43464.8733963383,-43464.8744629492,-43464.8755295634,-43464.8765961809,34762.2755516201,34762.2788074383,34762.2820632528,34762.2853190635,34762.2885748704,715160.013074679,715160.02446947,715160.03586426,715160.04725905,715160.058653839,715160.070048628,715160.081443417,715160.092838205,715160.104232993,715160.115627781,34762.324388496,715160.138417355,27725.0253301038,27725.0258754234,27725.0264207431,27725.0269660628,27725.0275113825,27725.0280567021,715160.218180854,715160.229575639,715160.240970423,27725.0302379808,715160.26375999,715160.275154773,715160.286549555,715160.297944337,715160.309339119,27725.0335098989,27725.0340552186,27725.0346005383,27725.035145858,27725.0356911776,27725.0362364973,27725.036781817,27725.0373271367,27725.0378724564,715160.423286919,715160.434681697,27725.0395084154,27725.0400537351,27725.0405990547,27725.0411443744,715160.491655582,27725.0422350137,27725.0427803334,27725.0433256531,27725.0438709727,715160.548629459,27725.0449616121,27725.0455069318,27725.0460522514,27725.0465975711,27725.0471428908,27725.0476882104,27725.0482335301,27725.0487788498,27725.0493241694,27725.0498694891,27725.0504148088,715160.685366728,715160.696761498,715160.708156268,715160.719551037,715160.730945807,715160.742340575,715160.753735344,715160.765130112,715160.77652488,715160.787919647,27725.0564133251,27725.0569586448,27725.0575039644,27725.0580492841,27725.0585946038,27725.0591399234,27725.0596852431,27725.0602305628,27725.0607758824,27725.0613212021,27725.0618665217,27725.0624118414
715158.38361613,715158.395010969,715158.406405808,715158.417800647,715158.429195486,715158.440590324,715158.451985162,715158.463379999,715158.474774836,715158.486169673,715158.49756451,715158.508959346,715158.520354181,715158.531749017,715158.543143852,715158.554538686,715158.565933521,715158.577328355,715158.588723189,715158.600118022,715158.611512855,715158.622907688,715158.63430252,715158.645697352,-209280.09735405,715158.668487015,715158.679881846,715158.691276676,-209280.100199736,-209280.100911159,715158.725461166,715158.736855995,-209280.103045435,-43464.7656854441,-209280.104468289,-43464.7678180091,34761.9434381798,-209280.106602577,-209280.107314008,715158.828014615,-209280.108736872,-209280.109448305,-209280.11015974,34761.9662315459,-209280.11158261,-209280.112294047,-209280.113005484,-209280.113716923,34761.9825124071,-209280.115139802,34761.9890247249,34761.992280878,-209280.117274126,-730.60835995149,-730.610606527553,34762.0053054525,-209280.120119904,-209280.12083135,-209280.121542798,-6.80832897830273,-730.624093201193,-730.626342182932,34762.028098311,-43464.7976752961,-730.633091189779,-730.635341545956,1611.31607572554,-43464.8019408325,-43464.8030072248,34762.0508909826,1611.31499128601,-730.648850898383,-730.651103659617,1611.31417791164,1611.31390677833,34762.0704274095,34762.0736834673,34762.0769395212,-209280.135771915,-209280.136483379,-209280.137194845,-209280.137906311,-209280.138617778,-209280.139329245,-209280.140040714,-209280.140752183,-209280.141463653,-209280.142175124,34762.1127558639,-43464.8254022184,34762.1192678767,34762.1225238774,-43464.8286016209,34762.1290358674,-43464.8307345722,-43464.8318010527,34762.1388038238,-43464.8339340236,34762.1453157757,-43464.8360670076,1611.30685581773,-43464.8382000046,34762.1583396339,34762.1615955889,-43464.8413995246,34762.1681074875,34762.1713634312,34762.174619371,-43464.8456655969,-43464.8467321232,-43464.8477986527,-43464.8488651854,-43464.8499317215,34762.19415493,-209280.16138515,34762.2006667526,34762.2039226582,34762.20717856,34762.2104344579,-43464.8573975649,34762.2169462425,34762.2202021291,34762.2234580119,34762.2267138909,34762.229969766,34762.2332256374,34762.236481505,-43464.8659301528,267695.662896509,NaN,1611.29871651655,1611.29844514049,-43464.8712631262,-43464.8723297306,1611.29763098676,1611.29735959367,1611.29708819631,1611.29681679469,-43464.8776628015,-43464.8787294255,-43464.8797960527,-43464.8808626832,-43464.8819293169,34762.2918306735,34762.2950864728,34762.2983422683,34762.3015980601,34762.304853848,34762.3081096321,34762.3113654125,34762.314621189,34762.3178769618,34762.3211327308,-43464.8936625023,34762.3276442573,715160.149812142,715160.161206928,34762.3374115188,34762.340667265,715160.195391285,715160.20678607,34762.3504344809,34762.353690212,34762.3569459392,34762.3602016627,34762.3634573824,34762.3667130983,34762.3699688104,34762.3732245188,34762.3764802233,715160.320733901,715160.332128682,715160.343523463,715160.354918243,715160.366313023,715160.377707803,715160.389102582,715160.400497362,715160.41189214,34762.4090370604,34762.4122927233,715160.446076475,715160.457471252,715160.468866029,715160.480260806,34762.428570981,715160.503050358,715160.514445134,715160.525839909,715160.537234684,34762.444849144,715160.560024233,715160.571419007,715160.582813781,715160.594208554,715160.605603327,715160.616998099,715160.628392872,715160.639787644,715160.651182415,715160.662577186,715160.673971957,34762.4839163496,34762.4871719255,34762.4904274976,34762.4936830659,34762.4969386305,34762.5001941913,34762.5034497483,34762.5067053015,34762.5099608509,34762.5132163966,715160.799314415,715160.810709181,715160.822103948,715160.833498714,715160.84489348,715160.856288245,715160.86768301,715160.879077775,715160.890472539,715160.901867303,715160.913262067,715160.92465683
34761.8262121949,34761.8294685392,34761.8327248797,34761.8359812164,34761.8392375492,34761.8424938782,34761.8457502033,-209280.085260031,-209280.085971437,-209280.086682845,-209280.087394252,-209280.088105662,34761.865288074,34761.8685443724,-209280.090239893,-209280.090951305,-209280.091662718,34761.8815695276,34761.8848258069,-209280.093796961,-209280.094508377,-209280.095219794,-209280.095931212,-209280.096642631,34761.9043634022,-209280.09806547,-209280.098776891,-209280.099488313,34761.9173883893,34761.9206446265,-209280.101622584,-209280.102334009,34761.9304133151,1611.32501975236,34761.9369257551,1611.32447782211,-43464.7688842965,34761.9466943864,34761.9499505892,-209280.10802544,34761.9564629833,34761.9597191747,34761.9629753622,-43464.7763484003,34761.9694877258,34761.9727439018,34761.9760000741,34761.9792562425,-43464.7816800013,34761.9857685679,-43464.7838126647,-43464.7848790013,34761.9955370274,-6.80826808838796,-6.80827823627894,-43464.7891443805,34762.0085615866,34762.0118177168,34762.0150738433,238187.322896084,-6.80833912722108,-6.80834927631046,-43464.7966089202,-730.630841177197,-6.80837972460404,-6.80838987437688,-730.637592245733,-730.639843289102,-730.642094676058,-43464.8040736204,-730.646598480708,-6.8084507765977,-6.80846092756465,-730.6533567644,-730.65561021273,-43464.8104720624,-43464.8115384809,-43464.8126049026,34762.0801955714,34762.0834516179,34762.0867076603,34762.0899636992,34762.0932197341,34762.0964757653,34762.0997317926,34762.1029878162,34762.1062438359,34762.1094998519,-43464.8243357574,1611.30983926777,-43464.8264686826,-43464.8275351501,1611.30902565068,-43464.8296680949,1611.30848321799,1611.30821199526,-43464.8328675365,1611.30766953702,-43464.835000514,1611.30712706175,-730.714320430711,1611.30658456944,-43464.839266508,-43464.8403330147,1611.30577079904,-43464.8424660378,-43464.8435325543,-43464.844599074,1611.30468571221,1611.30441442986,1611.30414314324,1611.30387185237,1611.30360055724,-43464.8509982607,34762.1974108432,-43464.8531313491,-43464.8541978981,-43464.8552644505,-43464.856331006,1611.30170137206,-43464.858464127,-43464.8595306923,-43464.8605972609,-43464.8616638328,-43464.8627304079,-43464.8637969863,-43464.8648635679,1611.29953061917,NaN,NaN,-730.782351400352,-730.784624419114,1611.29817376017,1611.2979023756,-730.791445534188,-730.793719925471,-730.795994659824,-730.798269737319,1611.29654538882,1611.29627397868,1611.29600256429,1611.29573114563,1611.29545972272,-43464.8829959538,-43464.8840625941,-43464.8851292375,-43464.8861958843,-43464.8872625342,-43464.8883291874,-43464.8893958439,-43464.8904625036,-43464.8915291666,-43464.8925958328,1611.29247378951,-43464.894729175,34762.3309000149,34762.3341557687,-43464.8979292126,-43464.8989958984,34762.3439230074,34762.3471787461,-43464.9021959749,-43464.9032626736,-43464.9043293756,-43464.9053960808,-43464.9064627892,-43464.9075295009,-43464.9085962158,-43464.9096629339,-43464.9107296554,34762.3797359241,-209280.201941597,34762.3862473142,34762.3895030036,34762.3927586892,34762.396014371,34762.3992700489,34762.4025257232,34762.4057813937,-43464.9213970478,-43464.9224638049,34762.4155483824,34762.4188040377,34762.4220596893,34762.425315337,-43464.9277976389,34762.4318266211,34762.4350822575,34762.4383378901,34762.441593519,-43464.9331315539,34762.4481047653,34762.4513603828,34762.4546159965,34762.4578716064,34762.4611272125,34762.4643828149,34762.4676384135,34762.4708940082,34762.4741495993,34762.4774051865,34762.4806607699,-43464.94593328,-43464.9470001115,-43464.9480669463,-43464.9491337843,-43464.9502006256,-43464.95126747,-43464.9523343177,-43464.9534011687,-43464.9544680229,-43464.9555348803,34762.5164719385,34762.5197274766,34762.5229830109,34762.5262385415,34762.5294940683,34762.5327495913,-209280.235384861,-209280.236096439,-209280.236808018,-209280.237519598,-209280.238231179,-209280.23894276
-43464.7305000192,-43464.7315661916,-43464.7326323672,-43464.7336985462,-43464.7347647285,-43464.735830914,-43464.7368971028,34761.8490065247,34761.8522628422,34761.8555191559,34761.8587754657,34761.8620317718,-43464.7432943049,-43464.7443605168,34761.8718006669,34761.8750569577,34761.8783132446,-43464.7486253971,-43464.7496916254,34761.8880820823,34761.8913383539,34761.8945946217,34761.8978508857,34761.9011071459,-43464.7560890642,34761.9076196547,34761.9108759034,34761.9141321482,-43464.7603540891,-43464.7614203536,34761.9239008598,34761.9271570894,-43464.7646191666,-730.563500612554,-43464.766751725,-730.567980358558,1611.32420685059,-43464.7699505872,-43464.7710168812,34761.9532067882,-43464.773149479,-43464.7742157828,-43464.7752820899,1611.32230993083,-43464.7774147139,-43464.7784810308,-43464.7795473511,-43464.7806136745,1611.3209548604,1611.32068383355,1611.32041280243,1611.32014176706,-43464.7859453412,238187.375333291,238187.366593722,-730.612853447345,-43464.7902107335,-43464.7912770898,-43464.7923434493,-239106.212972348,238187.314156597,238187.305417123,-730.628591508248,-6.80836957500193,238187.279198784,238187.270459365,-6.80840002432044,-6.80841017443469,-6.80842032471959,-730.644346406596,-6.80844062580118,238187.218023135,238187.209283811,-6.80847107870196,-6.8084812300096,1611.31363564076,1611.31336449895,1611.31309335287,-43464.8136713276,-43464.8147377559,-43464.8158041874,-43464.8168706222,-43464.8179370603,-43464.8190035016,-43464.8200699463,-43464.8211363942,-43464.8222028453,-43464.8232692997,1611.31011046495,-730.689453158324,1611.30956806633,1611.30929686064,-730.696231020889,1611.30875443647,-730.700751313014,-730.703011974178,1611.30794076827,-730.70753432667,1611.30739830152,-730.712058052667,-6.8087452236134,-730.716583152111,1611.3063133169,1611.3060420601,-730.723373376368,1611.30549953372,1611.30522826414,1611.30495699031,-730.732431815258,-730.734697283245,-730.736963094524,-730.739229249088,-730.74149574693,1611.30332925785,-43464.8520648033,1611.30278664629,1611.30251533412,1611.3022440177,1611.30197269701,-730.75737084298,1611.30143004286,1611.3011587094,1611.30088737167,1611.30061602969,1611.30034468345,1611.30007333295,1611.29980197819,-730.775534402947,NaN,NaN,238186.702426157,-6.8090601343263,-730.786897781026,-730.789171486062,-6.80909061810891,-6.8091007797039,-6.80911094146578,238186.641256753,-730.80054515789,-730.80282092156,-730.805097028314,-730.80737347811,-730.80965027099,1611.29518829554,1611.29491686411,1611.29464542841,1611.29437398846,1611.29410254425,1611.29383109577,1611.29355964304,1611.29328818605,1611.29301672479,1611.29274525928,-730.834717632899,1611.29220231547,-43464.895795851,-43464.8968625302,1611.29138786782,1611.29111637674,-43464.9000625873,-43464.9011292795,1611.29030187797,1611.29003036986,1611.28975885749,1611.28948734085,1611.28921581996,1611.28894429481,1611.2886727654,1611.28840123173,1611.28812969379,-43464.91179638,34762.382991621,-43464.9139298391,-43464.9149965734,-43464.9160633111,-43464.9171300519,-43464.918196796,-43464.9192635434,-43464.920330294,1611.28541408016,1611.28514249537,-43464.9235305652,-43464.9245973288,-43464.9256640956,-43464.9267308656,1611.28378450748,-43464.9288644154,-43464.9299311952,-43464.9309979782,-43464.9320647644,1611.28242641309,-43464.9341983466,-43464.9352651425,-43464.9363319417,-43464.9373987441,-43464.9384655498,-43464.9395323587,-43464.9405991708,-43464.9416659862,-43464.9427328048,-43464.9437996266,-43464.9448664517,1611.27916655197,1611.27889486919,1611.27862318214,1611.27835149083,1611.27807979526,1611.27780809543,1611.27753639134,1611.27726468299,1611.27699297038,1611.2767212535,-43464.9566017409,-43464.9576686048,-43464.9587354719,-43464.9598023422,-43464.9608692158,-43464.9619360925,34762.5360051105,34762.539260626,34762.5425161376,34762.5457716455,34762.5490271497,34762.55228265
1611.33395914323,1611.3336883207,1611.33341749392,1611.33314666288,1611.33287582758,1611.33260498803,1611.33233414422,-43464.737963295,-43464.7390294904,-43464.7400956891,-43464.7411618911,-43464.7422280964,1611.33070899198,1611.33043811838,-43464.7454267319,-43464.7464929504,-43464.7475591721,1611.32935458139,1611.32908368651,-43464.750757857,-43464.7518240919,-43464.75289033,-43464.7539565715,-43464.7550228162,1611.32745822778,-43464.7571553155,-43464.7582215701,-43464.759287828,1611.32637450349,1611.32610356178,-43464.7624866213,-43464.7635528923,1611.3252907111,-6.80806516663358,1611.32474878936,-6.80808545571157,-730.570220747276,1611.32393587483,1611.32366489482,-43464.7720831784,1611.323122922,1611.3228519292,1611.32258093214,-730.585913094362,1611.32203892526,1611.32176791543,1611.32149690134,1611.321225883,-730.597132226446,-730.599377084052,-730.601622285369,-730.603867830329,-730.606113719054,-239106.256902236,-239106.249580552,-6.80828838434118,-730.61510071077,-730.617348317834,1611.31824440023,-3647.2872712352,-239106.205650751,-239106.198329168,-6.80835942557072,238187.287938217,-239106.176364506,-239106.169042981,238187.26171996,238187.252980567,238187.244241189,-6.80843047517511,238187.226762473,-239106.125114133,-239106.117792709,238187.2005445,238187.191805203,-730.657864004583,-6.80850153313559,-730.662372618819,1611.31282220253,1611.31255104794,1611.31227988908,1611.31200872597,1611.3117375586,1611.31146638697,1611.31119521109,1611.31092403094,1611.31065284654,1611.31038165787,-730.687194557658,238187.060717372,-730.691712102401,-730.693971389954,-6.80866398261006,-730.698490995248,-6.80868429184621,-6.8086944467181,-730.705272978733,-6.80871475696922,-730.709796017984,-6.80873506789641,238186.964588231,-6.80875537949925,-730.718846216858,-730.721109624947,-6.8087858481694,-730.725637471117,-730.727901909187,-730.73016669057,-6.80882647542371,-6.80883663265849,-6.80884679006165,-6.80885694763313,-6.80886710537288,-730.74376258804,1611.3030579542,-730.748297300045,-730.750565170925,-730.752833385046,-730.7551019424,-6.80893821425794,-730.759640086781,-730.761909673792,-730.764179604006,-730.766449877421,-730.768720494031,-730.770991453826,-730.773262756799,-6.80901949162389,NaN,NaN,-3646.53362360182,238186.69368763,-6.80907029542005,-6.80908045668099,238186.667472131,238186.658733658,238186.649995198,-3646.45930353162,-6.80913126549042,-6.80914142775293,-6.80915159018224,-6.80916175277826,-6.80917191554088,-730.81192740693,-730.814204885921,-730.816482707962,-730.818760873031,-730.821039381121,-730.823318232236,-730.82559742637,-730.827876963511,-730.830156843651,-730.832437066783,-6.80928371691374,-730.836998541994,1611.29193083718,1611.29165935463,-730.843843327066,-730.846125607998,1611.29084488141,1611.29057338182,-730.852974508413,-730.855258161066,-730.857542156635,-730.859826495107,-730.862111176477,-730.864396200741,-730.866681567891,-730.868967277916,-730.871253330808,1611.2878581516,-43464.9128631079,1611.28731505443,1611.28704349946,1611.28677194023,1611.28650037673,1611.28622880898,1611.28595723697,1611.28568566069,-730.894132715938,-730.896422539833,1611.28487090631,1611.28459931299,1611.28432771542,1611.28405611358,-730.907876801283,1611.28351289712,1611.28324128251,1611.28296966363,1611.28269804049,-730.919339631398,1611.28215478143,1611.28188314551,1611.28161150533,1611.28133986089,1611.28106821218,1611.28079655922,1611.280524902,1611.28025324051,1611.27998157477,1611.27970990477,1611.2794382305,-730.94688537828,-730.949183084404,-730.951481133143,-730.953779524489,-730.956078258435,-730.958377334971,-730.960676754093,-730.962976515793,-730.965276620064,-730.967577066898,1611.27644953237,1611.27617780697,1611.27590607732,1611.2756343434,1611.27536260523,1611.27509086279,-43464.9630029726,-43464.9640698558,-43464.9651367423,-43464.966203632,-43464.967270525,-43464.9683374211
-730.489783402024,-730.492011753334,-730.494240448688,-730.496469488079,-730.498698871498,-730.50092859894,-730.503158670399,1611.33206329616,1611.33179244383,1611.33152158726,1611.33125072642,1611.33097986133,-730.516546323079,-730.518778802461,1611.33016724052,1611.3298963584,1611.32962547202,-730.527712159502,-730.52994635861,1611.32881278736,1611.32854188396,1611.3282709763,1611.32800006438,1611.32772914821,-730.543358775486,1611.32718730309,1611.32691637415,1611.32664544095,-730.552307264543,-730.554545246463,1611.32583261581,1611.32556166558,-730.56126125528,238187.550127515,-730.565740313649,238187.532647847,-6.80809560050915,-730.572461479794,-730.574702556107,1611.32339391054,-730.57918574009,-730.581427847749,-730.583670299174,-6.80816661891392,-730.588156233298,-730.590399715979,-730.592643542402,-730.594887712561,-6.80821735150504,-6.8082274985385,-6.80823764574357,-6.8082477931202,-6.80825794066836,-3647.35094555447,-3647.34033332188,238187.357854167,-6.80829853257484,-6.80830868097953,-730.619596268649,-52497.3367800768,-3647.27665863312,-3647.26604596948,238187.296677663,-239106.183686045,-3647.23420760922,-3647.22359469932,-239106.16172147,-239106.154399974,-239106.147078492,238187.235501824,-239106.132435571,-3647.15991594733,-3647.14930260657,-239106.110471299,-239106.103149904,-6.80849138148749,238187.174326649,238187.165587393,-730.664627441218,238187.148108921,-730.669138116542,-730.671393969458,-6.80856244659504,-730.675906705854,-730.678163589299,-730.680420816202,-730.682678386597,-730.684936300436,238187.069456466,-239105.99333071,-6.80864367405112,-6.80865382824594,238187.034500171,-6.80867413714357,238187.017022105,238187.008283092,-6.80870460175913,238186.990805107,-6.80872491234833,238186.973327176,-239105.912798698,238186.9558493,-6.8087655355539,-6.8087756917773,238186.929632586,-6.80879600473014,-6.80880616145949,-6.80881631835736,238186.894677156,238186.885938333,238186.877199523,238186.868460726,238186.859721943,-6.80887726328083,-730.746029772414,-6.80889757960116,-6.80890773801342,-6.80891789659368,-6.80892805534187,238186.79855084,-6.80894837334184,-6.80895853259351,-6.80896869201289,-6.80897885159995,-6.80898901135464,-6.80899917127689,-6.80900933136665,238186.728641818,NaN,NaN,-52497.6161549241,-3646.52300663333,238186.684949117,238186.676210617,-3646.49115535899,-3646.48053814478,-3646.46992086884,-52497.6437052588,238186.63251832,238186.623779901,238186.615041496,238186.606303104,238186.597564725,-6.80918207847018,-6.80919224156601,-6.80920240482833,-6.80921256825708,-6.80922273185216,-6.80923289561359,-6.80924305954131,-6.80925322363524,-6.80926338789531,-6.8092735523215,238186.501443448,-6.80929388167197,-730.839279794058,-730.841561389084,-6.80932437694208,-6.80933454236374,-730.848408231871,-730.850691198679,-6.80936503962288,-6.80937520570711,-6.80938537195687,-6.80939553837207,-6.80940570495267,-6.80941587169862,-6.80942603860988,-6.80943620568637,-6.80944637292803,-730.873539726558,1611.28758660515,-730.878113546553,-730.880400970862,-730.882688737978,-730.884976847956,-730.887265300715,-730.889554096287,-730.891843234803,-6.80954805441786,-6.80955822347303,-730.898712706599,-730.90100321614,-730.90329406842,-730.905585263474,-6.80960907121553,-730.910168681842,-730.912460905142,-730.914753471174,-730.917046379927,238186.178138358,-730.921633225577,-730.923927162459,-730.926221442036,-730.9285160643,-730.930811029244,-730.933106336861,-730.935401987143,-730.937697980083,-730.939994315673,-730.942290993907,-730.944588014778,-6.80978198421681,-6.80979215704253,-6.80980233003153,-6.80981250318378,-6.80982267649921,-6.80983284997775,-6.80984302361937,-6.809853197424,-6.80986337139161,-6.80987354552212,-730.969877856288,-730.972178988229,-730.974480462709,-730.976782279722,-730.979084439264,-730.981386941325,1611.27481911609,1611.27454736513,1611.27427560991,1611.27400385042,1611.27373208668,1611.27346031868
-6.80773049677339,-6.80774063550593,-6.80775077441269,-6.80776091349359,-6.80777105274859,-6.80778119217764,-6.80779133178068,-730.505389085865,-730.507619845334,-730.509850948797,-730.512082396248,-730.514314187676,-6.80785217304957,-6.80786231386914,-730.52101162579,-730.52324479309,-730.525478304336,-6.80790287888198,-6.80791302056866,-730.532180901641,-730.534415788591,-730.536651019463,-730.53888659424,-730.541122512916,-6.80797387432611,-730.545595381939,-730.547832332275,-730.550069626479,-6.8080144469578,-6.80802459054768,-730.556783572228,-730.559022241837,-6.80805502235326,-239106.403338957,-6.80807531108637,-239106.388695024,238187.523908034,-6.80810574547904,-6.80811589062117,-730.576943976205,-6.80813618142202,-6.80814632708063,-6.80815647291128,238187.462729723,-6.80817676508848,-6.80818691143492,-6.80819705795318,-6.80820720464325,238187.419031337,238187.410291701,238187.401552078,238187.392812469,238187.384072873,-52497.3131762899,-52497.3171101965,-239106.242258882,238187.349114626,238187.340375098,-6.80831882955557,-277876.56022664,-52497.3407141224,-52497.3446481911,-239106.191007599,-3647.2448204575,-52497.3564505362,-52497.3603846975,-3647.21298172779,-3647.20236869479,-3647.19175560029,-239106.139757024,-3647.17052922654,-52497.3839901523,-52497.3879244758,-3647.13868920428,-3647.12807574043,238187.183065919,-239106.088507157,-239106.081185805,238187.15684815,-239106.066543145,-6.8085421414282,-6.80855229392671,238187.121891314,-6.80857259943331,-6.80858275244122,-6.80859290561887,-6.80860305896616,-6.80861321248307,-239106.000651888,-3646.96886639894,238187.051978292,238187.043239225,-239105.971367261,238187.025761131,-239105.956725033,-239105.949403941,238186.999544093,-239105.934761801,238186.982066135,-239105.920119718,-3646.85210408486,-239105.905477692,238186.947110382,238186.938371477,-239105.883514763,238186.920893708,238186.912154844,238186.903415994,-239105.854231059,-239105.846910169,-3646.74595007019,-3646.7353343306,-3646.72471852954,238186.850983174,-6.80888742135694,238186.833505675,238186.824766946,238186.816028231,238186.807289529,-3646.65040620122,238186.789812165,238186.781073504,238186.772334856,238186.763596221,238186.7548576,238186.746118992,238186.737380398,-3646.56547413909,NaN,NaN,-277876.316294255,-52497.6200906165,-3646.51238960344,-3646.50177251198,-52497.6318978331,-52497.6358336184,-52497.639769427,-277876.292235988,-3646.44868613297,-239105.627290172,-239105.619969729,-239105.6126493,-239105.605328885,238186.58882636,238186.580088008,238186.57134967,238186.562611345,238186.553873034,238186.545134736,238186.536396451,238186.52765818,238186.518919923,238186.510181679,-239105.524805277,238186.492705231,-6.80930404659614,-6.80931421168619,238186.46649066,238186.457752497,-6.80934470795113,-6.8093548737042,238186.431538087,238186.422799977,238186.414061881,238186.405323798,238186.396585729,238186.387847673,238186.379109631,238186.370371602,238186.361633586,-6.80945654033482,-730.875826465156,238186.33541962,-6.8094870435453,238186.317943709,238186.309205774,238186.300467853,238186.291729944,238186.28299205,238186.274254168,238186.2655163,-6.80956839269265,-6.80957856207676,-6.80958873162531,-6.80959890133827,238186.221827161,-6.80961924125704,-6.80962941146277,-6.80963958183264,-6.80964975236662,-239105.253965915,-6.80967009392665,-6.8096802649526,-6.80969043614243,-6.80970060749609,-6.80971077901353,-6.80972095069469,-6.80973112253952,-6.80974129454797,-6.80975146671997,-6.80976163905548,-6.80977181155444,238186.073286595,238186.064549035,238186.055811489,238186.047073956,238186.038336436,238186.02959893,238186.020861437,238186.012123957,238186.003386491,238185.994649038,-6.80988371981549,-6.80989389427167,-6.8099040688906,-6.8099142436722,-6.80992441861645,-6.8099345937233,-730.983689785898,-730.985992972973,-730.988296502547,-730.990600374609,-730.992904589154,-730.995209146173
238187.838549891,238187.829809601,238187.821069324,238187.812329061,238187.803588812,238187.794848576,238187.786108355,-6.80780147155766,-6.80781161150852,-6.80782175163321,-6.80783189193166,-6.80784203240383,238187.733667309,238187.724927183,-6.80787245486208,-6.80788259602869,-6.80789273736866,238187.689966813,238187.681226755,-6.80792316242863,-6.80793330446186,-6.80794344666829,-6.80795358904784,-6.80796373160046,238187.628786691,-6.80798401722472,-6.80799416029626,-6.80800430354064,238187.59382692,238187.585087012,-6.80803473431025,-6.80804487824547,238187.558867368,-3647.56317727087,238187.541387674,-3647.54195520817,-239106.38137308,238187.515168235,238187.506428449,-6.80812603593551,238187.488948918,238187.480209172,238187.471469441,-239106.330119873,238187.453990019,238187.445250328,238187.43651065,238187.427770987,-239106.293510874,-239106.286189118,-239106.278867376,-239106.271545648,-239106.264223935,-277876.580833359,-277876.577398985,-3647.3297210277,-239106.234937227,-239106.227615586,238187.331635584,-170534.247240016,-277876.556792077,-277876.553357481,-3647.25543324429,-52497.352516398,-277876.543053506,-277876.539618785,-52497.3643188821,-52497.3682530898,-52497.3721873207,-3647.18114244421,-52497.3800558519,-277876.519009792,-277876.51557485,-52497.3918588226,-277876.50870487,-239106.095828524,-3647.10684862814,-3647.0962349797,-239106.073864468,-3647.07500749823,238187.139369705,238187.130630503,-239106.044579263,238187.113152139,238187.104412977,238187.095673829,238187.086934695,238187.078195574,-3646.97948078573,-52497.4548115232,-239105.986009546,-239105.978688396,-3646.9370228695,-239105.96404614,-3646.91579354234,-3646.9051787865,-239105.942082864,-3646.88394909032,-239105.927440752,-3646.86271914818,-52497.4980949484,-3646.84148896007,-239105.898156701,-239105.890835725,-3646.80964321678,-239105.876193815,-239105.868872882,-239105.861551963,-3646.76718136495,-3646.75656574831,-52497.5374459525,-52497.5413811805,-52497.5453164318,-3646.71410266702,238186.842244418,-3646.69287075759,-3646.68225471068,-3646.67163860231,-3646.66102243249,-52497.5728638405,-3646.63978990851,-3646.62917355435,-3646.61855713875,-3646.60794066179,-3646.59732412317,-3646.58670752323,-3646.57609086182,-52497.6043479863,NaN,NaN,-170534.029492508,-277876.312857454,-52497.6240263322,-52497.627962071,-277876.302546863,-277876.299109936,-277876.295672978,-170534.008024735,-52497.6476411138,-3646.43806867293,-3646.42745115149,-3646.41683356857,-3646.40621592423,-239105.598008485,-239105.5906881,-239105.583367728,-239105.576047371,-239105.568727029,-239105.561406701,-239105.554086387,-239105.546766088,-239105.539445803,-239105.532125533,-3646.2894177842,-239105.517485035,238186.483967027,238186.475228837,-239105.495524396,-239105.488204212,238186.449014347,238186.44027621,-239105.466243746,-239105.458923619,-239105.451603507,-239105.44428341,-239105.436963326,-239105.429643257,-239105.422323202,-239105.415003162,-239105.407683136,238186.352895584,-6.80946670790666,-239105.385723145,238186.326681658,-239105.371083223,-239105.363763283,-239105.356443358,-239105.349123447,-239105.341803551,-239105.334483669,-239105.327163801,238186.256778446,238186.248040604,238186.239302777,238186.230564962,-239105.290564678,238186.213089374,238186.2043516,238186.195613839,238186.186876092,-3645.89649682072,238186.169400637,238186.16066293,238186.151925236,238186.143187556,238186.134449889,238186.125712235,238186.116974595,238186.108236968,238186.099499355,238186.090761755,238186.082024168,-239105.166130348,-239105.158810811,-239105.151491288,-239105.14417178,-239105.136852285,-239105.129532806,-239105.12221334,-239105.114893889,-239105.107574453,-239105.10025503,238185.985911599,238185.977174172,238185.96843676,238185.95969936,238185.950961974,238185.942224602,-6.80994476899267,-6.80995494442453,-6.80996512001881,-6.80997529577546,-6.80998547169441,-6.80999564777562
-239106.644972204,-239106.637649753,-239106.630327316,-239106.623004893,-239106.615682485,-239106.608360092,-239106.601037713,238187.777368146,238187.768627952,238187.759887771,238187.751147603,238187.742407449,-239106.557103744,-239106.549781466,238187.71618707,238187.707446971,238187.698706885,-239106.520492501,-239106.513170296,238187.67248671,238187.663746679,238187.655006662,238187.646266658,238187.637526668,-239106.469237369,238187.620046728,238187.611306779,238187.602566843,-239106.439949041,-239106.432626995,238187.576347117,238187.567607236,-239106.410660945,-52497.2345030199,-239106.396016983,-52497.2423699303,-3647.53134408439,-239106.37405115,-239106.366729234,238187.497688676,-239106.352085446,-239106.344763574,-239106.337441716,-3647.45706449283,-239106.322798044,-239106.31547623,-239106.30815443,-239106.300832645,-3647.40400579364,-3647.39339386899,-3647.38278188274,-3647.37216983491,-3647.36155772548,-170534.265641462,-170534.262574552,-52497.3210441262,-3647.31910867194,-3647.3084962546,-239106.22029396,267695.430391235,-170534.244173112,-170534.241106209,-52497.3485822829,-277876.546488196,-170534.231905506,-170534.228838608,-277876.536184031,-277876.532749247,-277876.52931443,-52497.3761215747,-277876.522444703,-170534.210437239,-170534.207370348,-277876.512139876,-170534.201236569,-3647.11746221505,-52497.4036620019,-52497.4075964414,-3647.08562126972,-52497.4154653898,-239106.059221837,-239106.051900543,-3647.04316581446,-239106.037257998,-239106.029936747,-239106.022615511,-239106.015294289,-239106.007973081,-52497.4508768055,-277876.457176,-3646.95825195063,-3646.94763744081,-52497.4666158154,-3646.92640823667,-52497.4744854594,-52497.4784203163,-3646.89456396917,-52497.4862900995,-3646.87333414999,-52497.4941599755,-277876.419383655,-52497.5020299444,-3646.83087377378,-3646.82025852602,-52497.5138350716,-3646.79902784604,-3646.78841241382,-3646.77779692012,-52497.529575566,-52497.5335107477,-277876.385023669,-277876.381587497,-277876.378151294,-52497.5492517063,-3646.70348674304,-52497.5571223248,-52497.5610576689,-52497.5649930362,-52497.5689284268,-277876.35409699,-52497.5767992775,-52497.5807347376,-52497.584670221,-52497.5886057276,-52497.5925412574,-52497.5964768105,-52497.6004123868,-277876.32660447,NaN,NaN,267695.6696357,-170534.02642568,-277876.309420622,-277876.305983758,-170534.017225202,-170534.014158379,-170534.011091556,267695.693222828,-277876.288798967,-52497.6515769921,-52497.6555128935,-52497.6594488183,-52497.6633847662,-3646.39559821859,-3646.38498045141,-3646.37436262281,-3646.36374473287,-3646.35312678155,-3646.34250876882,-3646.33189069468,-3646.32127255914,-3646.31065436222,-3646.3000361039,-52497.7066817277,-3646.27879940311,-239105.510164808,-239105.502844595,-3646.2469438916,-3646.236325265,-239105.480884042,-239105.473563887,-3646.20446901701,-3646.19385014496,-3646.18323121153,-3646.17261221675,-3646.1619931606,-3646.15137404309,-3646.1407548642,-3646.13013562395,-3646.11951632237,-239105.400363125,238186.344157595,-3646.08765804961,-239105.378403177,-3646.06641889442,-3646.05579922486,-3646.04517949392,-3646.03455970163,-3646.02393984785,-3646.01331993292,-3646.0026999566,-239105.319843948,-239105.312524109,-239105.305204284,-239105.297884474,-3645.94959915514,-239105.283244897,-239105.27592513,-239105.268605377,-239105.261285639,-52497.8523376111,-239105.246646205,-239105.23932651,-239105.232006829,-239105.224687163,-239105.21736751,-239105.210047873,-239105.202728249,-239105.19540864,-239105.188089046,-239105.180769465,-239105.1734499,-3645.76904496534,-3645.758423579,-3645.74780213137,-3645.73718062247,-3645.72655905229,-3645.71593742084,-3645.70531572813,-3645.69469397414,-3645.68407215888,-3645.67345028236,-239105.092935622,-239105.085616229,-239105.07829685,-239105.070977485,-239105.063658134,-239105.056338798,238185.933487242,238185.924749897,238185.916012564,238185.907275245,238185.898537939,238185.889800647
-3647.91330570729,-3647.90269674136,-3647.89208771375,-3647.88147862444,-3647.87086947345,-3647.86026026078,-3647.84965098642,-239106.593715349,-239106.586392999,-239106.579070663,-239106.571748342,-239106.564426036,-3647.78599404516,-3647.7753843391,-239106.542459203,-239106.535136955,-239106.527814721,-3647.73294489822,-3647.72233488386,-239106.505848105,-239106.498525929,-239106.491203768,-239106.48388162,-239106.476559488,-3647.65867350287,-239106.461915266,-239106.454593176,-239106.447271101,-3647.6162313493,-3647.60562065685,-239106.425304964,-239106.417982947,-3647.57378820981,-277876.649514206,-3647.55256627032,-277876.642646691,-52497.2463034202,-3647.52073289901,-3647.51012165202,-239106.359407333,-3647.48889897318,-3647.47828754134,-3647.46767604789,-52497.2738384975,-3647.4464528762,-3647.43584119797,-3647.42522945813,-3647.41461765668,-52497.2935071043,-52497.2974408951,-52497.301374709,-52497.3053085462,-52497.3092424064,267695.410173086,267695.413542781,-277876.573964579,-52497.3249780791,-52497.3289120552,-3647.29788377569,NaN,267695.433760922,267695.437130607,-277876.549922855,-170534.234972406,267695.447239655,267695.450609335,-170534.22577171,-170534.222704814,-170534.219637919,-277876.525879583,-170534.213504131,267695.470827387,267695.474197058,-170534.204303458,267695.480936395,-52497.3997275856,-277876.501834764,-277876.498399664,-52497.411530904,-277876.491529369,-3647.06439366517,-3647.05377977062,-52497.4272689864,-3647.03255179686,-3647.02193771768,-3647.011323577,-3647.00070937476,-3646.990095111,-277876.460611479,-170534.155233366,-52497.458746264,-52497.4626810281,-277876.446869375,-52497.4705506258,-277876.439998134,-277876.436562466,-52497.4823551963,-277876.429691036,-52497.4902250259,-277876.42281948,-170534.121497838,-277876.415947798,-52497.5059649636,-52497.509900006,-277876.405640038,-52497.5177701604,-52497.5217052724,-52497.5256404076,-277876.391895918,-277876.388459809,-170534.090829288,-170534.087762439,-170534.084695591,-277876.374715059,-52497.5531870039,-277876.367842495,-277876.364406166,-277876.360969806,-277876.357533414,-170534.063227684,-277876.350660535,-277876.347224049,-277876.343787531,-277876.340350981,-277876.336914401,-277876.333477788,-277876.330041145,-170534.038692997,NaN,NaN,NaN,267695.673005294,-170534.023358853,-170534.020292027,267695.683114067,267695.686483655,267695.689853242,NaN,-170534.004957914,-277876.285361915,-277876.281924831,-277876.278487716,-277876.275050569,-52497.6673207374,-52497.6712567319,-52497.6751927496,-52497.6791287905,-52497.6830648546,-52497.687000942,-52497.6909370527,-52497.6948731866,-52497.6988093437,-52497.7027455241,-277876.237239882,-52497.7106179546,-3646.26818096065,-3646.25756245681,-52497.7224267747,-52497.7263630945,-3646.22570657704,-3646.2150878277,-52497.7381721936,-52497.7421086065,-52497.7460450426,-52497.749981502,-52497.7539179846,-52497.7578544905,-52497.7617910196,-52497.765727572,-52497.7696641477,-3646.10889695944,-239105.393043128,-52497.7814740142,-3646.07703850265,-52497.7893473749,-52497.7932840902,-52497.7972208287,-52497.8011575904,-52497.8050943755,-52497.8090311838,-52497.8129680154,-3645.99207991895,-3645.98145981997,-3645.97083965969,-3645.96021943807,-52497.8326525223,-3645.93897881088,-3645.92835840531,-3645.91773793842,-3645.90711741023,-277876.110030614,-3645.88587616992,-3645.8752554578,-3645.86463468439,-3645.85401384968,-3645.84339295366,-3645.83277199634,-3645.82215097773,-3645.81152989783,-3645.80090875664,-3645.79028755416,-3645.7796662904,-52497.8995841989,-52497.9035215659,-52497.9074589562,-52497.9113963698,-52497.9153338067,-52497.9192712669,-52497.9232087503,-52497.9271462571,-52497.9310837871,-52497.9350213405,-3645.66282834456,-3645.6522063455,-3645.64158428518,-3645.63096216361,-3645.62033998078,-3645.60971773669,-239105.049019476,-239105.041700169,-239105.034380876,-239105.027061597,-239105.019742333,-239105.012423082
-52497.1047123554,-52497.1086450359,-52497.1125777395,-52497.1165104663,-52497.1204432161,-52497.1243759891,-52497.1283087852,-3647.83904165038,-3647.82843225267,-3647.81782279329,-3647.80721327224,-3647.79660368954,-52497.1519060471,-52497.155839005,-3647.76477457138,-3647.754164742,-3647.74355485093,-52497.1715710679,-52497.1755041414,-3647.71172480785,-3647.70111467017,-3647.69050447081,-3647.67989420981,-3647.66928388717,-52497.1991030683,-3647.64806305694,-3647.63745254934,-3647.62684198013,-52497.2148361488,-52497.2187694767,-3647.5950099028,-3647.58439908711,-52497.2305695994,-170534.326979902,-52497.2384364635,-170534.320846038,-277876.639212885,-52497.2502369332,-52497.2541704694,-3647.49951034342,-52497.2620376112,-52497.2659712168,-52497.2699048456,-277876.615175363,-52497.2777721726,-52497.2817058708,-52497.2856395921,-52497.2895733366,-277876.598004756,-277876.59457054,-277876.591136292,-277876.587702013,-277876.584267702,NaN,NaN,-170534.259507643,-277876.570530142,-277876.567095673,-52497.3328460544,NaN,NaN,NaN,-170534.238039307,267695.443869974,NaN,NaN,267695.453979014,267695.457348691,267695.460718367,-170534.216571024,267695.467457715,NaN,NaN,267695.477566727,NaN,-277876.505269833,-170534.195102795,-170534.19203591,-277876.494964532,-170534.185902142,-52497.4193998988,-52497.423334431,-277876.481223689,-52497.4312035649,-52497.4351381667,-52497.4390727916,-52497.4430074397,-52497.446942111,-170534.158300239,267695.531481254,-277876.45374049,-277876.450304948,-170534.146032755,-277876.44343377,-170534.139899019,-170534.136832153,-277876.433126767,-170534.130698424,-277876.426255274,-170534.124564699,267695.568547296,-170534.118430978,-277876.412511909,-277876.40907599,-170534.109230405,-277876.402204055,-277876.398768041,-277876.395331995,-170534.096962989,-170534.093896138,267695.60224356,267695.605613179,267695.608982797,-170534.081628744,-277876.371278793,-170534.075495053,-170534.072428209,-170534.069361366,-170534.066294525,267695.632570086,-170534.060160844,-170534.057094006,-170534.054027169,-170534.050960332,-170534.047893497,-170534.044826663,-170534.04175983,267695.659526912,NaN,NaN,NaN,NaN,267695.676374886,267695.679744477,NaN,NaN,NaN,NaN,267695.696592413,-170534.001891095,-170533.998824276,-170533.995757459,-170533.992690643,-277876.271613391,-277876.268176181,-277876.26473894,-277876.261301668,-277876.257864364,-277876.254427029,-277876.250989662,-277876.247552264,-277876.244114835,-277876.240677374,-170533.958955733,-277876.233802358,-52497.7145542047,-52497.7184904781,-277876.223489599,-277876.22005195,-52497.7302994376,-52497.734235804,-277876.209738814,-277876.206301039,-277876.202863233,-277876.199425395,-277876.195987526,-277876.192549626,-277876.189111695,-277876.185673732,-277876.182235737,-52497.7736007466,-3646.09827753521,-277876.171921566,-52497.7854106829,-277876.165045295,-277876.161607113,-277876.158168899,-277876.154730654,-277876.151292377,-277876.147854069,-277876.14441573,-52497.8169048702,-52497.8208417483,-52497.8247786497,-52497.8287155744,-277876.127223563,-52497.8365894935,-52497.840526488,-52497.8444635058,-52497.8484005468,-170533.845484693,-52497.8562746988,-52497.8602118096,-52497.8641489438,-52497.8680861012,-52497.8720232819,-52497.8759604859,-52497.8798977132,-52497.8838349638,-52497.8877722376,-52497.8917095348,-52497.8956468552,-277876.06876434,-277876.06532528,-277876.061886189,-277876.058447067,-277876.055007913,-277876.051568729,-277876.048129512,-277876.044690265,-277876.041250986,-277876.037811676,-52497.9389589171,-52497.9428965171,-52497.9468341403,-52497.9507717868,-52497.9547094567,-52497.9586471498,-3645.59909543135,-3645.58847306476,-3645.57785063693,-3645.56722814785,-3645.55660559753,-3645.54598298597
-277876.762809935,-277876.759377238,-277876.755944509,-277876.752511749,-277876.749078957,-277876.745646133,-277876.742213277,-52497.1322416044,-52497.1361744467,-52497.1401073122,-52497.1440402007,-52497.1479731124,-277876.721615478,-277876.718182401,-52497.1597719861,-52497.1637049902,-52497.1676380175,-277876.704449775,-277876.701016539,-52497.1794372381,-52497.1833703578,-52497.1873035007,-52497.1912366668,-52497.195169856,-277876.680416461,-52497.2030363037,-52497.2069695623,-52497.210902844,-277876.666682442,-277876.663248858,-52497.2227028278,-52497.226636202,-277876.652947917,267695.342778901,-277876.646080464,267695.349518344,-170534.317779108,-277876.635779049,-277876.63234518,-52497.2581040287,-277876.625477348,-277876.622043385,-277876.61860939,-170534.296310627,-277876.611741305,-277876.608307216,-277876.604873094,-277876.601438941,-170534.280976031,-170534.277909115,-170534.2748422,-170534.271775287,-170534.268708374,NaN,NaN,267695.416912475,-170534.256440734,-170534.253373827,-277876.563661173,NaN,NaN,NaN,267695.440500291,NaN,NaN,NaN,NaN,NaN,NaN,267695.464088042,NaN,NaN,NaN,NaN,NaN,-170534.198169682,267695.487675727,267695.491045391,-170534.188969025,267695.497784715,-277876.488094174,-277876.484658947,-170534.176701498,-277876.4777884,-277876.474353079,-277876.470917726,-277876.467482342,-277876.464046926,267695.528111606,NaN,-170534.152166495,-170534.149099624,267695.54159019,-170534.142965886,267695.548329475,267695.551699115,-170534.133765288,267695.558438391,-170534.127631561,267695.565177662,NaN,267695.571916928,-170534.115364119,-170534.112297262,267695.582025817,-170534.106163549,-170534.103096695,-170534.100029842,267695.595504317,267695.598873939,NaN,NaN,NaN,267695.612352414,-170534.078561898,267695.619091643,267695.622461256,267695.625830867,267695.629200478,NaN,267695.635939694,267695.6393093,267695.642678905,267695.646048509,267695.649418112,267695.652787713,267695.656157313,NaN,NaN,NaN,NaN,NaN,NaN,NaN,NaN,NaN,NaN,NaN,NaN,NaN,NaN,NaN,NaN,-170533.989623827,-170533.986557013,-170533.9834902,-170533.980423388,-170533.977356577,-170533.974289767,-170533.971222958,-170533.96815615,-170533.965089343,-170533.962022538,267695.747136033,-170533.955888929,-277876.230364803,-277876.226927217,-170533.946688524,-170533.943621725,-277876.216614269,-277876.213176557,-170533.934421333,-170533.931354538,-170533.928287743,-170533.92522095,-170533.922154158,-170533.919087367,-170533.916020577,-170533.912953788,-170533.909887,-277876.178797712,-52497.7775373688,-170533.900686642,-277876.168483446,267695.817896632,-170533.891486294,-170533.888419513,-170533.885352734,-170533.882285955,-170533.879219177,-170533.876152401,-277876.140977359,-277876.137538957,-277876.134100524,-277876.130662059,-170533.860818534,-277876.123785036,-277876.120346477,-277876.116907888,-277876.113469266,267695.871809107,-277876.10659193,-277876.103153214,-277876.099714468,-277876.09627569,-277876.092836881,-277876.08939804,-277876.085959169,-277876.082520265,-277876.079081331,-277876.075642365,-277876.072203368,-170533.80868358,-170533.805616827,-170533.802550076,-170533.799483325,-170533.796416575,-170533.793349827,-170533.790283079,-170533.787216333,-170533.784149587,-170533.781082843,-277876.034372335,-277876.030932962,-277876.027493559,-277876.024054124,-277876.020614657,-277876.017175159,-52497.9625848663,-52497.966522606,-52497.9704603691,-52497.9743981554,-52497.9783359651,-52497.982273798
-170534.428189287,-170534.425122319,-170534.422055351,-170534.418988384,-170534.415921419,-170534.412854455,-170534.409787491,-277876.73878039,-277876.735347471,-277876.73191452,-277876.728481538,-277876.725048524,-170534.391385735,-170534.38831878,-277876.714749292,-277876.711316151,-277876.707882979,-170534.376050969,-170534.372984019,-277876.697583272,-277876.694149973,-277876.690716642,-277876.68728328,-277876.683849886,-170534.354582342,-277876.676983003,-277876.673549514,-277876.670115994,-170534.34231458,-170534.339247642,-277876.659815242,-277876.656381595,-170534.330046835,NaN,-170534.323912969,NaN,267695.352888064,-170534.314712179,-170534.311645251,-277876.62891128,-170534.305511398,-170534.302444473,-170534.29937755,267695.376476062,-170534.293243706,-170534.290176786,-170534.287109866,-170534.284042948,267695.393324591,267695.396694293,267695.400063993,267695.403433692,267695.40680339,NaN,NaN,NaN,267695.420282167,267695.423651858,-170534.250306921,NaN,NaN,NaN,NaN,NaN,NaN,NaN,NaN,NaN,NaN,NaN,NaN,NaN,NaN,NaN,NaN,267695.484306062,NaN,NaN,267695.494415053,NaN,-170534.182835259,-170534.179768378,267695.50789369,-170534.173634619,-170534.17056774,-170534.167500864,-170534.164433988,-170534.161367113,NaN,NaN,267695.534850901,267695.538220546,NaN,267695.544959833,NaN,NaN,267695.555068754,NaN,267695.561808027,NaN,NaN,NaN,267695.575286559,267695.578656189,NaN,267695.585395444,267695.58876507,267695.592134694,NaN,NaN,NaN,NaN,NaN,NaN,267695.615722029,NaN,NaN,NaN,NaN,NaN,NaN,NaN,NaN,NaN,NaN,NaN,NaN,NaN,NaN,NaN,NaN,NaN,NaN,NaN,NaN,NaN,NaN,NaN,NaN,NaN,NaN,NaN,NaN,NaN,NaN,267695.720179471,267695.723549045,267695.726918619,267695.730288191,267695.733657762,267695.737027331,267695.7403969,267695.743766467,NaN,267695.750505598,-170533.952822127,-170533.949755325,267695.760614284,267695.763983844,-170533.940554927,-170533.937488129,267695.774092516,267695.777462071,267695.780831624,267695.784201177,267695.787570728,267695.790940278,267695.794309826,267695.797679374,267695.80104892,-170533.906820213,-277876.175359654,267695.811157551,267695.814527092,NaN,267695.821266171,267695.824635708,267695.828005245,267695.83137478,267695.834744314,267695.838113846,-170533.873085625,-170533.870018851,-170533.866952078,-170533.863885305,267695.854961492,-170533.857751764,-170533.854684994,-170533.851618226,-170533.848551459,NaN,-170533.842417928,-170533.839351164,-170533.836284401,-170533.833217639,-170533.830150878,-170533.827084118,-170533.824017359,-170533.820950601,-170533.817883844,-170533.814817088,-170533.811750334,267695.912243261,267695.915612766,267695.91898227,267695.922351773,267695.925721274,267695.929090774,267695.932460274,267695.935829772,267695.939199268,267695.942568764,-170533.778016099,-170533.774949357,-170533.771882615,-170533.768815875,-170533.765749136,-170533.762682397,-277876.013735631,-277876.01029607,-277876.006856479,-277876.003416856,-277875.999977202,-277875.996537517
267695.23157728,267695.234947049,267695.238316816,267695.241686582,267695.245056346,267695.248426109,267695.251795871,-170534.406720529,-170534.403653568,-170534.400586608,-170534.39751965,-170534.394452692,267695.27201441,267695.275384162,-170534.385251826,-170534.382184872,-170534.37911792,267695.288863154,267695.292232899,-170534.36991707,-170534.366850123,-170534.363783176,-170534.36071623,-170534.357649286,267695.312451338,-170534.3515154,-170534.348448459,-170534.345381519,267695.325930269,267695.329299998,-170534.336180705,-170534.33311377,267695.339409177,NaN,267695.346148623,NaN,NaN,267695.356257782,267695.359627499,-170534.308578324,267695.366366928,267695.369736641,267695.373106352,NaN,267695.379845771,267695.383215478,267695.386585184,267695.389954888,NaN,NaN,NaN,NaN,NaN,NaN,NaN,NaN,NaN,NaN,267695.427021547,NaN,NaN,NaN,NaN,NaN,NaN,NaN,NaN,NaN,NaN,NaN,NaN,NaN,NaN,NaN,NaN,NaN,NaN,NaN,NaN,NaN,267695.501154375,267695.504524033,NaN,267695.511263346,267695.514633001,267695.518002654,267695.521372306,267695.524741957,NaN,NaN,NaN,NaN,NaN,NaN,NaN,NaN,NaN,NaN,NaN,NaN,NaN,NaN,NaN,NaN,NaN,NaN,NaN,NaN,NaN,NaN,NaN,NaN,NaN,NaN,NaN,NaN,NaN,NaN,NaN,NaN,NaN,NaN,NaN,NaN,NaN,NaN,NaN,NaN,NaN,NaN,NaN,NaN,NaN,NaN,NaN,NaN,NaN,NaN,NaN,NaN,NaN,NaN,NaN,NaN,NaN,NaN,NaN,NaN,NaN,NaN,NaN,NaN,NaN,NaN,NaN,267695.753875161,267695.757244723,NaN,NaN,267695.767353403,267695.77072296,NaN,NaN,NaN,NaN,NaN,NaN,NaN,NaN,NaN,267695.804418465,-170533.903753427,NaN,NaN,NaN,NaN,NaN,NaN,NaN,NaN,NaN,267695.841483378,267695.844852908,267695.848222437,267695.851591965,NaN,267695.858331017,267695.861700542,267695.865070065,267695.868439586,NaN,267695.875178626,267695.878548145,267695.881917662,267695.885287178,267695.888656692,267695.892026206,267695.895395718,267695.898765229,267695.902134739,267695.905504247,267695.908873755,NaN,NaN,NaN,NaN,NaN,NaN,NaN,NaN,NaN,NaN,267695.945938258,267695.949307752,267695.952677244,267695.956046735,267695.959416224,267695.962785713,-170533.75961566,-170533.756548924,-170533.753482189,-170533.750415454,-170533.747348721,-170533.744281989
NaN,NaN,NaN,NaN,NaN,NaN,NaN,267695.255165631,267695.258535389,267695.261905147,267695.265274903,267695.268644657,NaN,NaN,267695.278753912,267695.282123661,267695.285493408,NaN,NaN,267695.295602642,267695.298972384,267695.302342125,267695.305711864,267695.309081601,NaN,267695.315821072,267695.319190806,267695.322560538,NaN,NaN,267695.332669726,267695.336039452,NaN,NaN,NaN,NaN,NaN,NaN,NaN,267695.362997214,NaN,NaN,NaN,NaN,NaN,NaN,NaN,NaN,NaN,NaN,NaN,NaN,NaN,NaN,NaN,NaN,NaN,NaN,NaN,NaN,NaN,NaN,NaN,NaN,NaN,NaN,NaN,NaN,NaN,NaN,NaN,NaN,NaN,NaN,NaN,NaN,NaN,NaN,NaN,NaN,NaN,NaN,NaN,NaN,NaN,NaN,NaN,NaN,NaN,NaN,NaN,NaN,NaN,NaN,NaN,NaN,NaN,NaN,NaN,NaN,NaN,NaN,NaN,NaN,NaN,NaN,NaN,NaN,NaN,NaN,NaN,NaN,NaN,NaN,NaN,NaN,NaN,NaN,NaN,NaN,NaN,NaN,NaN,NaN,NaN,NaN,NaN,NaN,NaN,NaN,NaN,NaN,NaN,NaN,NaN,NaN,NaN,NaN,NaN,NaN,NaN,NaN,NaN,NaN,NaN,NaN,NaN,NaN,NaN,NaN,NaN,NaN,NaN,NaN,NaN,NaN,NaN,NaN,NaN,NaN,NaN,NaN,NaN,NaN,NaN,NaN,NaN,NaN,NaN,NaN,NaN,267695.807788008,NaN,NaN,NaN,NaN,NaN,NaN,NaN,NaN,NaN,NaN,NaN,NaN,NaN,NaN,NaN,NaN,NaN,NaN,NaN,NaN,NaN,NaN,NaN,NaN,NaN,NaN,NaN,NaN,NaN,NaN,NaN,NaN,NaN,NaN,NaN,NaN,NaN,NaN,NaN,NaN,NaN,NaN,NaN,NaN,NaN,NaN,267695.9661552,267695.969524686,267695.972894171,267695.976263655,267695.979633138,267695.98300262
